{"learner":{"attributes":{},"feature_names":["clusterid","gamemode","gametype","hero_0","hero_1","hero_2","hero_3","hero_4","hero_5","hero_6","hero_7","hero_8","hero_9","hero_10","hero_11","hero_12","hero_13","hero_14","hero_15","hero_16","hero_17","hero_18","hero_19","hero_20","hero_21","hero_22","hero_23","hero_24","hero_25","hero_26","hero_27","hero_28","hero_29","hero_30","hero_31","hero_32","hero_33","hero_34","hero_35","hero_36","hero_37","hero_38","hero_39","hero_40","hero_41","hero_42","hero_43","hero_44","hero_45","hero_46","hero_47","hero_48","hero_49","hero_50","hero_51","hero_52","hero_53","hero_54","hero_55","hero_56","hero_57","hero_58","hero_59","hero_60","hero_61","hero_62","hero_63","hero_64","hero_65","hero_66","hero_67","hero_68"],"feature_types":["int","int","int","int","int","int","int","int","int","int","int","int","int","int","int","int","int","int","int","int","int","int","int","int","int","int","int","int","int","int","int","int","int","int","int","int","int","int","int","int","int","int","int","int","int","int","int","int","int","int","int","int","int","int","int","int","int","int","int","int","int","int","int","int","int","int","int","int","int","int","int","int"],"gradient_booster":{"model":{"gbtree_model_param":{"num_parallel_tree":"1","num_trees":"100"},"iteration_indptr":[0,1,2,3,4,5,6,7,8,9,10,11,12,13,14,15,16,17,18,19,20,21,22,23,24,25,26,27,28,29,30,31,32,33,34,35,36,37,38,39,40,41,42,43,44,45,46,47,48,49,50,51,52,53,54,55,56,57,58,59,60,61,62,63,64,65,66,67,68,69,70,71,72,73,74,75,76,77,78,79,80,81,82,83,84,85,86,87,88,89,90,91,92,93,94,95,96,97,98,99,100],"tree_info":[0,0,0,0,0,0,0,0,0,0,0,0,0,0,0,0,0,0,0,0,0,0,0,0,0,0,0,0,0,0,0,0,0,0,0,0,0,0,0,0,0,0,0,0,0,0,0,0,0,0,0,0,0,0,0,0,0,0,0,0,0,0,0,0,0,0,0,0,0,0,0,0,0,0,0,0,0,0,0,0,0,0,0,0,0,0,0,0,0,0,0,0,0,0,0,0,0,0,0,0],"trees":[{"base_weights":[-4.822956E-5,-5.0547488E-2,2.3526843E-1,-7.4622564E-2,4.302928E-1,-2.1343294E-1,2.6447174E-1,-4.5818678E-1,-5.556031E-2,1.9285426E-2,4.6179792E-1,1.0808635E-1,-2.5212836E-1,2.2994475E-1,5.3638935E-1,-1.0540496E-2,-4.8734194E-1,-3.7569404E-2,-4.1645762E-1,-9.2382914E-1,1.3743562E-1,9.800538E-1,4.3846038E-1,2.8954598E-1,-3.0541685E-1,-2.3361157E-1,2.514371E-1,5.7789975E-1,-2.0623298E-1,8.3196886E-2,-1.0131537E-1,-5.0920826E-1,-3.816822E-2,-1.2850663E-2,-3.070824E-1,2.4927218E-1,-4.459842E-1,-1.0333442E-1,-2.8155047E-2,9.138058E-1,2.5203696E-2,2.1851943E-1,1.154507E0,4.2116374E-1,9.9563426E-1,-6.1400663E-2,4.2471966E-1,-2.6130652E-1,-1.1552161E0,-3.118473E-1,4.4176087E-1,2.6866728E-1,-2.4874222E-1,-2.0435826E-1,6.1158824E-1,7.3764324E-2,-3.2938662E-1,1.5692292E-2,-9.782942E-2,-1.1022778E-1,-4.9252544E-2,1.4514709E-1,-2.6506001E-2,-3.265663E-2,6.168838E-4,-3.336316E-2,4.5807917E-2,-6.707349E-2,3.9431136E-2,6.6180713E-3,-4.7584277E-2,-6.370734E-3,1.2536278E-1,9.224434E-2,-6.577756E-3,5.8550145E-2,-4.0475797E-2,-2.8155047E-2,1.2511185E-1,1.1823165E-2,4.5405034E-2,-6.370734E-3,1.0914389E-1,5.4585245E-2,-2.2767348E-2,-1.0277019E-1,-2.247034E-2,-2.8155047E-2,-1.2668608E-1,-4.6562036E-3,-4.816785E-2,-8.650579E-2,6.8758965E-2,2.5060618E-2,7.040381E-2,4.056255E-2,-3.292004E-2,7.829996E-2,-4.8119403E-2,1.2781715E-1,5.814093E-2,-5.790163E-2,2.455749E-2],"categories":[],"categories_nodes":[],"categories_segments":[],"categories_sizes":[],"default_left":[0,0,0,0,0,0,0,0,0,0,0,0,0,0,0,0,0,0,0,0,0,0,0,0,0,0,0,0,0,0,0,0,0,0,0,0,0,0,0,0,0,0,0,0,0,0,0,0,0,0,0,0,0,0,0,0,0,0,0,0,0,0,0,0,0,0,0,0,0,0,0,0,0,0,0,0,0,0,0,0,0,0,0,0,0,0,0,0,0,0,0,0,0,0,0,0,0,0,0,0,0,0,0],"id":0,"left_children":[1,3,5,7,9,11,13,15,17,19,21,-1,23,25,27,29,31,33,35,37,39,41,43,45,47,49,51,53,55,57,-1,59,61,63,65,67,69,-1,-1,71,73,75,77,79,81,-1,83,85,87,89,91,93,95,97,99,-1,101,-1,-1,-1,-1,-1,-1,-1,-1,-1,-1,-1,-1,-1,-1,-1,-1,-1,-1,-1,-1,-1,-1,-1,-1,-1,-1,-1,-1,-1,-1,-1,-1,-1,-1,-1,-1,-1,-1,-1,-1,-1,-1,-1,-1,-1,-1],"loss_changes":[2.1917946E2,1.7582324E2,4.2758667E1,1.0571681E2,9.36882E0,1.0273676E1,2.860672E1,8.929382E0,8.9447586E1,5.9886575E0,7.7053375E0,0E0,5.7085752E0,2.7128998E1,1.0724564E1,4.1144443E0,6.2929688E0,8.743862E1,1.2969818E1,1.3010883E-1,4.126151E0,3.4906235E0,5.8008804E0,2.453406E0,6.3611603E0,6.5265536E0,2.244983E1,8.7183E0,2.4456863E0,3.2948337E0,0E0,5.5199585E0,1.08338375E1,7.174509E1,2.2552437E1,4.057126E0,9.615868E0,0E0,0E0,2.068283E0,3.54087E0,1.7202079E0,3.5000973E0,6.200058E0,1.9674072E0,0E0,1.405066E0,4.5456533E0,4.7035027E-1,4.885992E0,4.760273E0,1.9569656E1,4.7144217E0,4.261639E0,5.550827E0,0E0,2.6472702E0,0E0,0E0,0E0,0E0,0E0,0E0,0E0,0E0,0E0,0E0,0E0,0E0,0E0,0E0,0E0,0E0,0E0,0E0,0E0,0E0,0E0,0E0,0E0,0E0,0E0,0E0,0E0,0E0,0E0,0E0,0E0,0E0,0E0,0E0,0E0,0E0,0E0,0E0,0E0,0E0,0E0,0E0,0E0,0E0,0E0,0E0],"parents":[2147483647,0,0,1,1,2,2,3,3,4,4,5,5,6,6,7,7,8,8,9,9,10,10,12,12,13,13,14,14,15,15,16,16,17,17,18,18,19,19,20,20,21,21,22,22,23,23,24,24,25,25,26,26,27,27,28,28,29,29,31,31,32,32,33,33,34,34,35,35,36,36,39,39,40,40,41,41,42,42,43,43,44,44,46,46,47,47,48,48,49,49,50,50,51,51,52,52,53,53,54,54,56,56],"right_children":[2,4,6,8,10,12,14,16,18,20,22,-1,24,26,28,30,32,34,36,38,40,42,44,46,48,50,52,54,56,58,-1,60,62,64,66,68,70,-1,-1,72,74,76,78,80,82,-1,84,86,88,90,92,94,96,98,100,-1,102,-1,-1,-1,-1,-1,-1,-1,-1,-1,-1,-1,-1,-1,-1,-1,-1,-1,-1,-1,-1,-1,-1,-1,-1,-1,-1,-1,-1,-1,-1,-1,-1,-1,-1,-1,-1,-1,-1,-1,-1,-1,-1,-1,-1,-1,-1],"split_conditions":[1E0,1E0,0E0,0E0,0E0,0E0,1E0,0E0,1E0,0E0,0E0,1.0808635E-1,0E0,0E0,1E0,1E0,1E0,1E0,0E0,1.61E2,0E0,0E0,1E0,0E0,1E0,1E0,1E0,0E0,0E0,1E0,-1.0131537E-1,0E0,1.34E2,0E0,1E0,0E0,0E0,-1.0333442E-1,-2.8155047E-2,1.52E2,0E0,1.83E2,0E0,0E0,0E0,-6.1400663E-2,1E0,0E0,0E0,3E0,0E0,1E0,0E0,0E0,0E0,7.3764324E-2,2.25E2,1.5692292E-2,-9.782942E-2,-1.1022778E-1,-4.9252544E-2,1.4514709E-1,-2.6506001E-2,-3.265663E-2,6.168838E-4,-3.336316E-2,4.5807917E-2,-6.707349E-2,3.9431136E-2,6.6180713E-3,-4.7584277E-2,-6.370734E-3,1.2536278E-1,9.224434E-2,-6.577756E-3,5.8550145E-2,-4.0475797E-2,-2.8155047E-2,1.2511185E-1,1.1823165E-2,4.5405034E-2,-6.370734E-3,1.0914389E-1,5.4585245E-2,-2.2767348E-2,-1.0277019E-1,-2.247034E-2,-2.8155047E-2,-1.2668608E-1,-4.6562036E-3,-4.816785E-2,-8.650579E-2,6.8758965E-2,2.5060618E-2,7.040381E-2,4.056255E-2,-3.292004E-2,7.829996E-2,-4.8119403E-2,1.2781715E-1,5.814093E-2,-5.790163E-2,2.455749E-2],"split_indices":[10,45,32,45,35,42,7,20,42,70,18,0,20,45,20,59,64,20,59,0,31,10,58,34,46,34,42,51,11,16,0,19,0,32,55,70,12,0,0,0,47,0,47,29,15,0,34,6,9,2,29,45,31,70,23,0,0,0,0,0,0,0,0,0,0,0,0,0,0,0,0,0,0,0,0,0,0,0,0,0,0,0,0,0,0,0,0,0,0,0,0,0,0,0,0,0,0,0,0,0,0,0,0],"split_type":[0,0,0,0,0,0,0,0,0,0,0,0,0,0,0,0,0,0,0,0,0,0,0,0,0,0,0,0,0,0,0,0,0,0,0,0,0,0,0,0,0,0,0,0,0,0,0,0,0,0,0,0,0,0,0,0,0,0,0,0,0,0,0,0,0,0,0,0,0,0,0,0,0,0,0,0,0,0,0,0,0,0,0,0,0,0,0,0,0,0,0,0,0,0,0,0,0,0,0,0,0,0,0],"sum_hessian":[1.84423E4,1.5184477E4,3.257823E3,1.4461264E4,7.2321277E2,1.986903E2,3.0591328E3,6.8357446E2,1.3777689E4,5.1604633E1,6.7160815E2,4.985955E0,1.9370436E2,2.716099E3,3.4303372E2,4.1882023E1,6.4169244E2,1.3124529E4,6.531601E2,4.985955E0,4.661868E1,2.7173454E1,6.444347E2,1.6952248E1,1.767521E2,1.1991222E2,2.5961868E3,3.2508426E2,1.7949438E1,3.9139748E1,2.7422752E0,6.117767E2,2.991573E1,1.2022883E4,1.1016467E3,2.7422752E1,6.2573737E2,3.7394662E0,1.2464888E0,4.985955E0,4.1632725E1,5.4845505E0,2.1688904E1,6.2673456E2,1.770014E1,1.7450843E0,1.5207163E1,1.6927318E2,7.4789324E0,1.0794593E2,1.1966292E1,2.510179E3,8.600773E1,1.3212781E1,3.118715E2,1.4957865E0,1.6453651E1,3.7394665E1,1.7450843E0,1.4957865E1,5.9681885E2,3.2408707E0,2.667486E1,6.863167E2,1.1336566E4,1.0652493E3,3.6397472E1,3.2408707E0,2.4181883E1,3.440309E1,5.913343E2,1.4957865E0,3.4901686E0,2.991573E0,3.864115E1,3.4901686E0,1.994382E0,1.2464888E0,2.0442415E1,6.1825844E1,5.649087E2,1.4957865E0,1.6204353E1,1.2963483E1,2.2436798E0,6.4817414E0,1.6279143E2,1.2464888E0,6.232444E0,4.2629917E1,6.531601E1,1.4957865E0,1.0470506E1,2.4117065E3,9.847261E1,8.974719E0,7.7033005E1,2.4929776E0,1.0719804E1,1.1716994E1,3.0015448E2,1.1467696E1,4.985955E0],"tree_param":{"num_deleted":"0","num_feature":"72","num_nodes":"103","size_leaf_vector":"1"}},{"base_weights":[5.2557113E-3,-3.9199777E-2,2.1304636E-1,-6.0321126E-2,3.853985E-1,-1.7396258E-1,2.3823E-1,-4.14769E-1,-4.277366E-2,-1.4640856E-1,4.198864E-1,-7.9942995E-1,-6.046546E-2,5.431468E-1,2.0945118E-1,4.1277507E-1,-4.3263322E-1,-6.942411E-2,1.6879156E-1,1.192771E-1,-2.3610726E-1,8.806767E-1,3.9672184E-1,5.9052993E-2,-8.783958E-1,-7.578789E-1,1.89275E-2,9.690201E-1,4.777772E-1,-1.3697165E-1,2.3343018E-1,5.379797E-1,-4.2817604E-2,-4.751294E-1,-7.208999E-2,3.0967936E-1,-8.3684094E-2,-4.0850136E-2,2.189248E-1,-1.17748395E-1,-1.2938668E-1,-6.6402517E-3,9.4657826E-1,3.6177972E-1,6.961985E-1,-9.8442674E-1,1.9042892E-2,5.8831185E-2,-8.9768475E-1,-2.2675704E-2,1.0523872E0,-1.0272405E-2,1.0565957E0,5.0885737E-1,-4.248832E-1,-1.2805536E0,-6.838683E-2,2.158329E-1,6.812861E-1,6.944933E-2,-4.2817604E-2,-4.4795822E-2,-1.00487605E-1,-5.5487704E-2,4.3702675E-3,-2.4678528E-2,3.4009848E-2,1.71994E-2,-1.0530147E-2,1.6047469E-3,-5.3156506E-2,-2.8284967E-2,2.4661085E-2,-1.002863E-1,-1.7228443E-3,-4.4789227E-5,1.02322794E-1,-1.2897869E-2,3.896688E-2,7.486376E-2,-5.6165725E-2,-1.0448859E-1,1.4539867E-2,-1.02393426E-1,9.46626E-3,-9.272846E-2,1.9990634E-3,3.058671E-2,1.23225264E-1,2.4431316E-2,1.1029489E-1,5.5475008E-2,-6.480527E-3,-1.1646646E-2,-9.980244E-2,-2.6891662E-2,-1.3910691E-1,9.5359795E-2,-9.491856E-3,2.4876352E-2,-1.3303099E-3,7.2599515E-2,-8.5766695E-2],"categories":[],"categories_nodes":[],"categories_segments":[],"categories_sizes":[],"default_left":[0,0,0,0,0,0,0,0,0,0,0,0,0,0,0,0,0,0,0,0,0,0,0,0,0,0,0,0,0,0,0,0,0,0,0,0,0,0,0,0,0,0,0,0,0,0,0,0,0,0,0,0,0,0,0,0,0,0,0,0,0,0,0,0,0,0,0,0,0,0,0,0,0,0,0,0,0,0,0,0,0,0,0,0,0,0,0,0,0,0,0,0,0,0,0,0,0,0,0,0,0,0,0],"id":1,"left_children":[1,3,5,7,9,11,13,15,17,19,21,23,25,27,29,31,33,35,37,-1,39,41,43,-1,45,47,49,51,53,55,57,59,-1,61,63,65,67,69,71,-1,73,-1,75,77,79,81,-1,-1,83,85,87,-1,89,91,93,95,97,99,101,-1,-1,-1,-1,-1,-1,-1,-1,-1,-1,-1,-1,-1,-1,-1,-1,-1,-1,-1,-1,-1,-1,-1,-1,-1,-1,-1,-1,-1,-1,-1,-1,-1,-1,-1,-1,-1,-1,-1,-1,-1,-1,-1,-1],"loss_changes":[1.7096497E2,1.3675208E2,3.1831833E1,9.031999E1,1.3314735E1,1.4139687E1,2.6763885E1,1.0305595E1,7.804881E1,5.656973E0,6.896744E0,3.8790035E0,9.4409275E0,6.873413E0,2.3294556E1,1.8083386E0,1.02472E1,6.648099E1,1.628584E1,0E0,4.1449556E0,2.0397453E0,6.530937E0,0E0,3.5160618E0,3.8074932E0,6.637543E0,3.3086472E0,6.680954E0,1.4180999E1,2.0497177E1,2.3369644E0,0E0,8.187668E0,4.0455127E0,7.630821E0,6.550287E1,8.376936E0,1.7434662E1,0E0,3.8566036E0,0E0,2.1548233E0,8.023346E0,4.816395E0,1.9882317E0,0E0,0E0,2.1241407E0,5.7635937E0,4.2521763E-1,0E0,9.2063904E-1,5.9125786E0,1.3359107E0,7.7041054E-1,4.772877E0,1.9032593E1,7.4048157E0,0E0,0E0,0E0,0E0,0E0,0E0,0E0,0E0,0E0,0E0,0E0,0E0,0E0,0E0,0E0,0E0,0E0,0E0,0E0,0E0,0E0,0E0,0E0,0E0,0E0,0E0,0E0,0E0,0E0,0E0,0E0,0E0,0E0,0E0,0E0,0E0,0E0,0E0,0E0,0E0,0E0,0E0,0E0,0E0],"parents":[2147483647,0,0,1,1,2,2,3,3,4,4,5,5,6,6,7,7,8,8,9,9,10,10,11,11,12,12,13,13,14,14,15,15,16,16,17,17,18,18,20,20,21,21,22,22,24,24,25,25,26,26,27,27,28,28,29,29,30,30,31,31,33,33,34,34,35,35,36,36,37,37,38,38,40,40,42,42,43,43,44,44,45,45,48,48,49,49,50,50,52,52,53,53,54,54,55,55,56,56,57,57,58,58],"right_children":[2,4,6,8,10,12,14,16,18,20,22,24,26,28,30,32,34,36,38,-1,40,42,44,-1,46,48,50,52,54,56,58,60,-1,62,64,66,68,70,72,-1,74,-1,76,78,80,82,-1,-1,84,86,88,-1,90,92,94,96,98,100,102,-1,-1,-1,-1,-1,-1,-1,-1,-1,-1,-1,-1,-1,-1,-1,-1,-1,-1,-1,-1,-1,-1,-1,-1,-1,-1,-1,-1,-1,-1,-1,-1,-1,-1,-1,-1,-1,-1,-1,-1,-1,-1,-1,-1],"split_conditions":[1E0,1E0,0E0,0E0,0E0,0E0,0E0,2E0,1E0,0E0,0E0,0E0,0E0,0E0,0E0,1E0,1E0,0E0,0E0,1.192771E-1,0E0,0E0,1E0,5.9052993E-2,1E0,0E0,1E0,0E0,1E0,0E0,1E0,1E0,-4.2817604E-2,1E0,0E0,0E0,0E0,1E0,0E0,-1.17748395E-1,0E0,-6.6402517E-3,0E0,0E0,1E0,1E0,1.9042892E-2,5.8831185E-2,1E0,0E0,0E0,-1.0272405E-2,0E0,1E0,3E0,0E0,0E0,1E0,1E0,6.944933E-2,-4.2817604E-2,-4.4795822E-2,-1.00487605E-1,-5.5487704E-2,4.3702675E-3,-2.4678528E-2,3.4009848E-2,1.71994E-2,-1.0530147E-2,1.6047469E-3,-5.3156506E-2,-2.8284967E-2,2.4661085E-2,-1.002863E-1,-1.7228443E-3,-4.4789227E-5,1.02322794E-1,-1.2897869E-2,3.896688E-2,7.486376E-2,-5.6165725E-2,-1.0448859E-1,1.4539867E-2,-1.02393426E-1,9.46626E-3,-9.272846E-2,1.9990634E-3,3.058671E-2,1.23225264E-1,2.4431316E-2,1.1029489E-1,5.5475008E-2,-6.480527E-3,-1.1646646E-2,-9.980244E-2,-2.6891662E-2,-1.3910691E-1,9.5359795E-2,-9.491856E-3,2.4876352E-2,-1.3303099E-3,7.2599515E-2,-8.5766695E-2],"split_indices":[10,45,21,45,32,36,20,1,29,18,18,66,29,36,32,22,17,33,36,0,34,35,17,0,35,35,69,9,44,64,69,55,0,13,10,51,20,54,6,0,52,0,34,53,24,45,0,0,70,64,9,0,8,3,1,7,42,70,46,0,0,0,0,0,0,0,0,0,0,0,0,0,0,0,0,0,0,0,0,0,0,0,0,0,0,0,0,0,0,0,0,0,0,0,0,0,0,0,0,0,0,0,0],"split_type":[0,0,0,0,0,0,0,0,0,0,0,0,0,0,0,0,0,0,0,0,0,0,0,0,0,0,0,0,0,0,0,0,0,0,0,0,0,0,0,0,0,0,0,0,0,0,0,0,0,0,0,0,0,0,0,0,0,0,0,0,0,0,0,0,0,0,0,0,0,0,0,0,0,0,0,0,0,0,0,0,0,0,0,0,0,0,0,0,0,0,0,0,0,0,0,0,0,0,0,0,0,0,0],"sum_hessian":[1.850594E4,1.5245148E4,3.2607913E3,1.4523542E4,7.216058E2,1.98863E2,3.0619282E3,6.840251E2,1.3839518E4,4.374885E1,6.778569E2,2.9615019E1,1.6924799E2,2.6252765E2,2.7994006E3,1.3986928E1,6.7003815E2,1.2291814E4,1.5477031E3,1.974376E0,4.1774475E1,3.0673857E1,6.4718304E2,1.2437745E0,2.8371244E1,1.6424444E1,1.5282355E2,3.309497E1,2.2943266E2,1.8092198E2,2.6184785E3,1.2487939E1,1.4989896E0,5.991055E2,7.093261E1,4.4484476E2,1.184697E4,2.987226E2,1.2489806E3,3.2319834E0,3.8542492E1,1.9950559E0,2.86788E1,5.8153876E2,6.5644295E1,2.5882572E1,2.4886727E0,1.2434269E0,1.5181017E1,1.4784973E2,4.973816E0,2.4869428E0,3.0608028E1,2.222176E2,7.2150655E0,9.2367935E0,1.716852E2,2.5209082E3,9.757033E1,1.0988949E1,1.4989896E0,5.7163165E2,2.7473873E1,1.2988064E1,5.7944546E1,2.2688334E1,4.221564E2,9.2302246E2,1.0923947E4,2.6855176E2,3.0170845E1,6.4828575E1,1.184152E3,3.4821765E0,3.5060314E1,2.2218204E0,2.645698E1,3.107601E1,5.5046277E2,6.3405785E1,2.238511E0,2.4639256E1,1.2433157E0,1.3439386E1,1.7416303E0,5.725462E0,1.4212427E2,1.490038E0,3.483778E0,1.9908885E0,2.861714E1,2.0578767E2,1.642993E1,5.473105E0,1.7419605E0,1.247817E0,7.988977E0,3.4601638E0,1.6822502E2,2.2040625E3,3.168458E2,9.532912E1,2.2412112E0],"tree_param":{"num_deleted":"0","num_feature":"72","num_nodes":"103","size_leaf_vector":"1"}},{"base_weights":[-1.547677E-3,-4.3403845E-2,1.9590035E-1,-6.233263E-2,3.4159857E-1,1.7856765E-1,6.733404E-1,-3.8469708E-1,-4.6451572E-2,1.3524187E-1,3.950023E-1,6.2056226E-1,1.6030078E-1,7.2657675E-1,-1.0823698E-1,-3.4007677E-1,-6.156807E-1,-3.0737426E-2,-3.7064084E-1,9.6198216E-2,8.880758E-2,3.4495836E-1,7.3921055E-1,-5.7005867E-2,6.901963E-1,1.2848863E-1,4.111189E-1,7.638615E-1,-5.4410066E-2,1.739646E-1,-3.5436368E-1,-6.482361E-1,5.5316713E-2,-1.6976905E-1,5.606494E-3,-9.8857856E-1,-3.3277318E-1,1.2765753E-1,-9.620172E-1,2.9358384E-1,7.64507E-1,-9.15685E-2,8.41404E-1,-2.6860073E-1,1.0247244E-1,7.4203795E-1,-1.3625431E-1,-3.352747E-1,1.4703795E-1,4.3747097E-1,-6.9965625E-1,8.568385E-1,3.5366952E-1,6.902268E-2,-3.1840812E-2,-3.8827796E-2,-1.15805855E-2,-6.925704E-2,1.4215811E-2,-1.930671E-2,1.6331576E-2,-2.9403413E-2,2.7362732E-3,2.5154928E-2,-1.08720206E-1,-3.9845604E-2,-4.449922E-3,8.910772E-3,8.4772736E-2,-1.4588557E-1,1.287204E-2,-7.5114937E-3,3.23642E-2,8.4575996E-2,-1.0611083E-1,-7.651924E-2,1.2323285E-2,8.820183E-2,-5.078279E-2,-1.3187872E-2,-7.556255E-2,-5.5254623E-3,7.882078E-2,-5.3640485E-2,1.0335337E-1,1.0436682E-1,-3.9777067E-2,-1.947418E-2,1.700676E-2,2.5325958E-2,5.760141E-2,2.8730894E-2,-9.611227E-2,-1.5485684E-2,9.007194E-2,5.0982982E-2,-1.2213155E-1],"categories":[],"categories_nodes":[],"categories_segments":[],"categories_sizes":[],"default_left":[0,0,0,0,0,0,0,0,0,0,0,0,0,0,0,0,0,0,0,0,0,0,0,0,0,0,0,0,0,0,0,0,0,0,0,0,0,0,0,0,0,0,0,0,0,0,0,0,0,0,0,0,0,0,0,0,0,0,0,0,0,0,0,0,0,0,0,0,0,0,0,0,0,0,0,0,0,0,0,0,0,0,0,0,0,0,0,0,0,0,0,0,0,0,0,0,0],"id":2,"left_children":[1,3,5,7,9,11,13,15,17,19,21,23,25,27,-1,29,31,33,35,37,-1,39,41,43,45,47,49,51,-1,53,55,57,-1,59,61,63,65,67,69,71,73,75,77,79,-1,81,83,85,87,89,91,93,95,-1,-1,-1,-1,-1,-1,-1,-1,-1,-1,-1,-1,-1,-1,-1,-1,-1,-1,-1,-1,-1,-1,-1,-1,-1,-1,-1,-1,-1,-1,-1,-1,-1,-1,-1,-1,-1,-1,-1,-1,-1,-1,-1,-1],"loss_changes":[1.5272588E2,1.1114022E2,2.6627975E1,7.438846E1,7.822502E0,2.5094292E1,1.1336239E1,6.822281E0,7.055914E1,4.278026E0,9.515816E0,5.8660507E0,2.3867767E1,5.6340866E0,0E0,4.277336E0,4.5147476E0,6.676741E1,1.4654793E1,4.8584967E0,0E0,1.0490181E1,6.115616E0,3.1209135E0,4.9023705E0,2.2948597E1,1.0169998E1,3.7939453E0,0E0,4.3360343E0,4.4762955E0,3.8382072E0,0E0,2.1281334E1,6.830198E1,4.7336082E0,1.1435257E1,3.783688E0,2.4768744E0,4.9504013E0,8.849352E0,1.3520768E0,3.9239082E0,6.455141E-1,0E0,3.9308739E0,4.046072E0,9.263987E0,2.0185066E1,8.270744E0,2.3906827E0,3.9960518E0,5.923629E0,0E0,0E0,0E0,0E0,0E0,0E0,0E0,0E0,0E0,0E0,0E0,0E0,0E0,0E0,0E0,0E0,0E0,0E0,0E0,0E0,0E0,0E0,0E0,0E0,0E0,0E0,0E0,0E0,0E0,0E0,0E0,0E0,0E0,0E0,0E0,0E0,0E0,0E0,0E0,0E0,0E0,0E0,0E0,0E0],"parents":[2147483647,0,0,1,1,2,2,3,3,4,4,5,5,6,6,7,7,8,8,9,9,10,10,11,11,12,12,13,13,15,15,16,16,17,17,18,18,19,19,21,21,22,22,23,23,24,24,25,25,26,26,27,27,29,29,30,30,31,31,33,33,34,34,35,35,36,36,37,37,38,38,39,39,40,40,41,41,42,42,43,43,45,45,46,46,47,47,48,48,49,49,50,50,51,51,52,52],"right_children":[2,4,6,8,10,12,14,16,18,20,22,24,26,28,-1,30,32,34,36,38,-1,40,42,44,46,48,50,52,-1,54,56,58,-1,60,62,64,66,68,70,72,74,76,78,80,-1,82,84,86,88,90,92,94,96,-1,-1,-1,-1,-1,-1,-1,-1,-1,-1,-1,-1,-1,-1,-1,-1,-1,-1,-1,-1,-1,-1,-1,-1,-1,-1,-1,-1,-1,-1,-1,-1,-1,-1,-1,-1,-1,-1,-1,-1,-1,-1,-1,-1],"split_conditions":[1E0,1E0,1E0,0E0,0E0,0E0,1E0,1E0,1E0,1E0,1E0,0E0,1E0,1E0,-1.0823698E-1,2E0,1E0,0E0,0E0,1E0,8.880758E-2,1E0,1.36E2,1E0,1E0,0E0,1E0,7E0,-5.4410066E-2,1.61E2,1E0,1E0,5.5316713E-2,1E0,0E0,0E0,4E0,1E0,1.54E2,0E0,1E0,0E0,1E0,1E0,1.0247244E-1,0E0,1E0,0E0,0E0,3E0,0E0,0E0,1E0,6.902268E-2,-3.1840812E-2,-3.8827796E-2,-1.15805855E-2,-6.925704E-2,1.4215811E-2,-1.930671E-2,1.6331576E-2,-2.9403413E-2,2.7362732E-3,2.5154928E-2,-1.08720206E-1,-3.9845604E-2,-4.449922E-3,8.910772E-3,8.4772736E-2,-1.4588557E-1,1.287204E-2,-7.5114937E-3,3.23642E-2,8.4575996E-2,-1.0611083E-1,-7.651924E-2,1.2323285E-2,8.820183E-2,-5.078279E-2,-1.3187872E-2,-7.556255E-2,-5.5254623E-3,7.882078E-2,-5.3640485E-2,1.0335337E-1,1.0436682E-1,-3.9777067E-2,-1.947418E-2,1.700676E-2,2.5325958E-2,5.760141E-2,2.8730894E-2,-9.611227E-2,-1.5485684E-2,9.007194E-2,5.0982982E-2,-1.2213155E-1],"split_indices":[10,45,69,45,10,71,28,36,42,49,4,34,7,68,0,1,50,10,32,66,0,17,0,67,12,69,33,1,0,0,4,42,0,32,35,49,1,52,0,35,43,11,13,7,0,53,63,66,32,2,4,56,3,0,0,0,0,0,0,0,0,0,0,0,0,0,0,0,0,0,0,0,0,0,0,0,0,0,0,0,0,0,0,0,0,0,0,0,0,0,0,0,0,0,0,0,0],"split_type":[0,0,0,0,0,0,0,0,0,0,0,0,0,0,0,0,0,0,0,0,0,0,0,0,0,0,0,0,0,0,0,0,0,0,0,0,0,0,0,0,0,0,0,0,0,0,0,0,0,0,0,0,0,0,0,0,0,0,0,0,0,0,0,0,0,0,0,0,0,0,0,0,0,0,0,0,0,0,0,0,0,0,0,0,0,0,0,0,0,0,0,0,0,0,0,0,0],"sum_hessian":[1.84779E4,1.5246615E4,3.2312852E3,1.4532937E4,7.13679E2,3.1194138E3,1.1187137E2,6.812496E2,1.3851687E4,1.4745032E2,5.662287E2,1.2249479E2,2.9969192E3,1.09147964E2,2.7234027E0,5.7302716E2,1.0822241E2,1.3212351E4,6.39336E2,1.4125244E2,6.1978855E0,4.9610318E2,7.01255E1,1.1432563E1,1.11062225E2,2.6609355E3,3.3598352E2,1.0642408E2,2.7238865E0,1.51934185E1,5.5783374E2,1.0572315E2,2.4992566E0,2.7372986E3,1.0475053E4,3.5466995E1,6.03869E2,1.380284E2,3.2240329E0,4.4349597E2,5.2607185E1,7.6926103E0,6.2432896E1,1.0190847E1,1.2417157E0,1.0460282E2,6.459398E0,1.016806E2,2.559255E3,3.287895E2,7.194053E0,8.587106E1,2.0553015E1,7.220621E0,7.9727974E0,4.8785132E2,6.998239E1,1.0022514E2,5.498007E0,2.5587444E3,1.7855426E2,7.08238E2,9.766814E3,2.4985614E0,3.2968433E1,4.914993E2,1.123697E2,1.3208104E2,5.947369E0,1.9831841E0,1.2408488E0,3.3317608E1,4.1017838E2,5.0879414E1,1.7277715E0,1.2403879E0,6.4522223E0,6.0944637E1,1.4882578E0,8.949302E0,1.2415452E0,5.715026E0,9.88878E1,5.216452E0,1.2429457E0,3.7278404E0,9.795276E1,1.6108972E2,2.3981653E3,1.423476E2,1.8644188E2,1.4859937E0,5.7080593E0,3.4645727E0,8.240649E1,1.9314293E1,1.2387228E0],"tree_param":{"num_deleted":"0","num_feature":"72","num_nodes":"97","size_leaf_vector":"1"}},{"base_weights":[-4.625118E-3,-4.09605E-2,1.6678537E-1,-5.8179513E-2,3.0920368E-1,-1.8912382E-1,1.8990892E-1,-3.3600843E-1,-3.8762752E-2,9.088887E-2,3.6673102E-1,-6.6247374E-1,-1.2916721E-1,-2.3196025E-1,2.096559E-1,-7.774353E-1,-2.9140538E-1,-1.7810212E-1,-1.9231018E-3,9.991118E-1,2.8343765E-2,7.557656E-1,3.339093E-1,-7.721282E-1,6.414281E-2,5.169838E-1,-1.6781792E-1,-3.1040066E-1,4.4318268E-1,-1.0691169E-1,2.3154958E-1,-8.5984135E-1,1.01926975E-1,1.2053699E-1,-3.2407328E-1,-2.0231557E-1,1.8214934E-1,-2.5544351E-2,2.2006431E-1,1.2604408E-1,2.4290157E-2,7.0203185E-1,-1.1519198E-2,-4.7397104E-1,9.003894E-1,-1.5727085E-1,3.5677555E-1,-8.943383E-1,6.289666E-2,-1.0195626E-1,8.529257E-2,-8.5143083E-1,-1.3277555E-1,-1.0541856E0,-2.5626197E-1,1.2060131E-1,8.617219E-1,-1.1419075E0,-6.956177E-2,-1.9403325E-1,2.4951589E-1,-9.111972E-2,3.0899346E-2,-8.596852E-2,2.1326829E-2,-3.609109E-2,8.711658E-4,-2.2719648E-2,1.500989E-2,2.2617217E-2,-1.1868806E-1,2.1586927E-2,-4.733444E-3,6.519357E-2,1.7634673E-2,-1.4426939E-2,1.112762E-1,-6.1446573E-3,5.9039783E-2,-1.11026905E-1,6.698544E-2,1.16181925E-1,2.035086E-2,-9.164276E-2,2.3763264E-2,3.7956685E-2,-8.7210145E-3,-1.2063432E-1,-3.9635953E-2,-2.503164E-2,1.5745966E-2,-4.855711E-3,-1.0292756E-1,-8.481055E-2,-9.706053E-3,-1.3079585E-1,1.7639674E-2,-7.795953E-2,-1.766976E-2,-5.362789E-2,3.1135771E-2,9.912558E-2,2.6866911E-2,-4.1784924E-2,-1.2755716E-1,-9.011542E-2,-2.8882741E-3,1.2570046E-1,-2.3556428E-2,5.2228607E-2,2.2288552E-2],"categories":[],"categories_nodes":[],"categories_segments":[],"categories_sizes":[],"default_left":[0,0,0,0,0,0,0,0,0,0,0,0,0,0,0,0,0,0,0,0,0,0,0,0,0,0,0,0,0,0,0,0,0,0,0,0,0,0,0,0,0,0,0,0,0,0,0,0,0,0,0,0,0,0,0,0,0,0,0,0,0,0,0,0,0,0,0,0,0,0,0,0,0,0,0,0,0,0,0,0,0,0,0,0,0,0,0,0,0,0,0,0,0,0,0,0,0,0,0,0,0,0,0,0,0,0,0,0,0,0,0],"id":3,"left_children":[1,3,5,7,9,11,13,15,17,19,21,23,25,27,29,31,33,35,37,39,41,43,45,47,-1,49,51,53,55,57,59,61,-1,63,65,67,69,71,73,-1,-1,75,77,79,81,83,85,87,-1,89,-1,91,93,95,97,99,101,103,105,107,109,-1,-1,-1,-1,-1,-1,-1,-1,-1,-1,-1,-1,-1,-1,-1,-1,-1,-1,-1,-1,-1,-1,-1,-1,-1,-1,-1,-1,-1,-1,-1,-1,-1,-1,-1,-1,-1,-1,-1,-1,-1,-1,-1,-1,-1,-1,-1,-1,-1,-1],"loss_changes":[1.149537E2,9.1838104E1,2.6603218E1,7.8292015E1,8.932709E0,5.5178676E0,2.5304726E1,1.8439827E1,6.964995E1,8.504719E0,6.9580917E0,3.6343403E0,4.494334E0,7.3419557E0,2.0101105E1,1.366938E1,1.1648102E1,2.4785744E1,5.6281895E1,1.6006737E0,3.8099113E0,8.099764E0,5.9250984E0,4.107871E0,0E0,2.2090752E0,3.8941932E0,4.661268E0,1.8635011E0,7.1903267E0,2.076654E1,5.273205E0,0E0,6.011038E0,9.804771E0,2.3349312E1,1.1069374E1,5.1041878E1,1.9374847E1,0E0,0E0,2.9152439E0,4.0825763E0,4.524785E0,6.8593597E0,7.394402E0,5.0886726E0,2.5449648E0,0E0,2.1198478E-1,0E0,1.0883107E0,4.013214E0,2.725315E0,4.6706104E0,1.3438516E0,2.0842743E-1,9.4646454E-2,6.150113E0,6.9441924E0,1.8772095E1,0E0,0E0,0E0,0E0,0E0,0E0,0E0,0E0,0E0,0E0,0E0,0E0,0E0,0E0,0E0,0E0,0E0,0E0,0E0,0E0,0E0,0E0,0E0,0E0,0E0,0E0,0E0,0E0,0E0,0E0,0E0,0E0,0E0,0E0,0E0,0E0,0E0,0E0,0E0,0E0,0E0,0E0,0E0,0E0,0E0,0E0,0E0,0E0,0E0,0E0],"parents":[2147483647,0,0,1,1,2,2,3,3,4,4,5,5,6,6,7,7,8,8,9,9,10,10,11,11,12,12,13,13,14,14,15,15,16,16,17,17,18,18,19,19,20,20,21,21,22,22,23,23,25,25,26,26,27,27,28,28,29,29,30,30,31,31,33,33,34,34,35,35,36,36,37,37,38,38,41,41,42,42,43,43,44,44,45,45,46,46,47,47,49,49,51,51,52,52,53,53,54,54,55,55,56,56,57,57,58,58,59,59,60,60],"right_children":[2,4,6,8,10,12,14,16,18,20,22,24,26,28,30,32,34,36,38,40,42,44,46,48,-1,50,52,54,56,58,60,62,-1,64,66,68,70,72,74,-1,-1,76,78,80,82,84,86,88,-1,90,-1,92,94,96,98,100,102,104,106,108,110,-1,-1,-1,-1,-1,-1,-1,-1,-1,-1,-1,-1,-1,-1,-1,-1,-1,-1,-1,-1,-1,-1,-1,-1,-1,-1,-1,-1,-1,-1,-1,-1,-1,-1,-1,-1,-1,-1,-1,-1,-1,-1,-1,-1,-1,-1,-1,-1,-1,-1],"split_conditions":[1E0,1E0,0E0,0E0,0E0,0E0,0E0,0E0,0E0,0E0,0E0,1E0,0E0,1E0,0E0,1E0,0E0,1E0,1E0,1E0,1.23E2,0E0,0E0,1E0,6.414281E-2,1.55E2,0E0,0E0,1.56E2,0E0,0E0,1E0,1.01926975E-1,0E0,1E0,1E0,1E0,0E0,0E0,1.2604408E-1,2.4290157E-2,0E0,1E0,3E0,1.86E2,1.54E2,1E0,2.11E2,6.289666E-2,3E0,8.529257E-2,1.53E2,0E0,1E0,0E0,0E0,2.24E2,1.53E2,0E0,1.21E2,0E0,-9.111972E-2,3.0899346E-2,-8.596852E-2,2.1326829E-2,-3.609109E-2,8.711658E-4,-2.2719648E-2,1.500989E-2,2.2617217E-2,-1.1868806E-1,2.1586927E-2,-4.733444E-3,6.519357E-2,1.7634673E-2,-1.4426939E-2,1.112762E-1,-6.1446573E-3,5.9039783E-2,-1.11026905E-1,6.698544E-2,1.16181925E-1,2.035086E-2,-9.164276E-2,2.3763264E-2,3.7956685E-2,-8.7210145E-3,-1.2063432E-1,-3.9635953E-2,-2.503164E-2,1.5745966E-2,-4.855711E-3,-1.0292756E-1,-8.481055E-2,-9.706053E-3,-1.3079585E-1,1.7639674E-2,-7.795953E-2,-1.766976E-2,-5.362789E-2,3.1135771E-2,9.912558E-2,2.6866911E-2,-4.1784924E-2,-1.2755716E-1,-9.011542E-2,-2.8882741E-3,1.2570046E-1,-2.3556428E-2,5.2228607E-2,2.2288552E-2],"split_indices":[10,45,21,35,10,29,45,29,10,24,46,71,46,7,32,69,20,21,17,36,0,7,50,19,0,0,53,32,0,55,49,28,0,70,3,32,44,20,46,0,0,36,53,2,0,0,47,0,0,2,0,0,64,14,4,4,0,0,64,0,20,0,0,0,0,0,0,0,0,0,0,0,0,0,0,0,0,0,0,0,0,0,0,0,0,0,0,0,0,0,0,0,0,0,0,0,0,0,0,0,0,0,0,0,0,0,0,0,0,0,0],"split_type":[0,0,0,0,0,0,0,0,0,0,0,0,0,0,0,0,0,0,0,0,0,0,0,0,0,0,0,0,0,0,0,0,0,0,0,0,0,0,0,0,0,0,0,0,0,0,0,0,0,0,0,0,0,0,0,0,0,0,0,0,0,0,0,0,0,0,0,0,0,0,0,0,0,0,0,0,0,0,0,0,0,0,0,0,0,0,0,0,0,0,0,0,0,0,0,0,0,0,0,0,0,0,0,0,0,0,0,0,0,0,0],"sum_hessian":[1.8454678E4,1.5227527E4,3.2271511E3,1.4514617E4,7.129096E2,1.9644E2,3.0307112E3,9.470625E2,1.3567555E4,1.4921655E2,5.6369305E2,2.0954853E1,1.7548515E2,1.3503845E2,2.8956726E3,8.5404274E1,8.6165826E2,2.8362214E3,1.0731333E4,8.649028E0,1.4056752E2,4.214333E1,5.215497E2,1.9705507E1,1.2493454E0,9.206012E0,1.6627914E2,1.2146633E2,1.3572128E1,1.87058E2,2.7086145E3,8.215754E1,3.2467308E0,6.3112988E1,7.985453E2,2.658008E3,1.7821341E2,9.700055E3,1.031279E3,5.9322066E0,2.7168214E0,6.9248996E0,1.3364262E2,4.1951003E0,3.794823E1,2.2938564E1,4.9861115E2,1.8457264E1,1.2482433E0,3.4838552E0,5.722156E0,6.971948E0,1.5930719E2,6.988112E0,1.1447822E2,8.392168E0,5.1799607E0,5.485212E0,1.8157278E2,1.0931772E2,2.5992969E3,7.891081E1,3.2467306E0,4.739809E0,5.8373177E1,7.188839E2,7.966135E1,2.4830566E3,1.7495152E2,1.7347006E2,4.7433476E0,8.0231E2,8.897744E3,9.3519394E1,9.377596E2,2.4746602E0,4.450239E0,1.2423554E2,9.407084E0,2.714429E0,1.4806713E0,2.7110682E1,1.0837547E1,7.397356E0,1.5541207E1,4.7440347E2,2.4207651E1,1.0473002E1,7.9842615E0,2.2386482E0,1.2452073E0,1.4951553E0,5.476793E0,6.4939785E0,1.5281322E2,5.741261E0,1.246851E0,1.3946577E1,1.0053164E2,1.4809848E0,6.911183E0,3.7002995E0,1.4796612E0,1.4977914E0,3.9874203E0,7.481306E0,1.7409148E2,2.227438E0,1.0709029E2,2.2954071E2,2.369756E3],"tree_param":{"num_deleted":"0","num_feature":"72","num_nodes":"111","size_leaf_vector":"1"}},{"base_weights":[-2.2862186E-3,1.2377781E-2,-3.471209E-1,-2.0518573E-2,1.6635826E-1,-3.7190962E-1,1.0357662E-1,-3.280783E-1,-6.2305555E-3,-1.9283241E-1,1.8932174E-1,-3.9757428E-1,6.704643E-2,2.0417753E-1,-1.340004E-1,-6.683138E-1,-2.8956202E-1,-2.735982E-1,1.0260433E-2,-1.6669814E-1,-1.358857E-1,1.6025257E-1,4.2144087E-1,-4.191805E-1,1.0704748E-1,-1.06724136E-1,6.0720444E-1,2.9852983E-1,-7.4890465E-2,-7.222487E-1,6.912794E-2,4.2621106E-2,-3.227404E-1,-3.1550488E-1,1.3870032E-1,-3.3995715E-1,2.212849E-2,6.8003494E-1,-2.0595054E-1,-2.504295E-1,1.792184E-1,-3.291189E-1,4.639531E-1,-4.38464E-1,1.2103228E-1,-6.665147E-1,2.676744E-1,-1.8897663E-1,1.04516305E-1,1.00844376E-1,3.6021993E-1,4.7000286E-1,-1.4371975E-1,-8.079659E-2,-1.3464822E-2,1.2243064E-1,-4.4695875E-3,-3.4833457E-2,8.132537E-3,-3.3771053E-2,1.9329956E-2,2.1012442E-2,-7.25739E-2,6.673843E-2,-3.659988E-2,-9.590195E-3,5.3617754E-3,5.860389E-3,9.686725E-2,-2.4461437E-2,5.962838E-2,-1.9234933E-2,-9.852373E-2,5.7861E-2,1.6096707E-2,-1.20019965E-1,8.950337E-3,4.9607866E-2,-5.1004823E-2,-1.5035269E-2,-4.770952E-2,2.1696908E-3,1.03696026E-1,-8.374971E-2,-1.414557E-2,-8.0860786E-2,3.5998926E-2,6.9613695E-2,-2.8507719E-2,1.1580522E-2,5.8977533E-2,-3.557562E-2,6.4808615E-2,-1.173137E-1,1.1553801E-2],"categories":[],"categories_nodes":[],"categories_segments":[],"categories_sizes":[],"default_left":[0,0,0,0,0,0,0,0,0,0,0,0,0,0,0,0,0,0,0,0,0,0,0,0,0,0,0,0,0,0,0,0,0,0,0,0,0,0,0,0,0,0,0,0,0,0,0,0,0,0,0,0,0,0,0,0,0,0,0,0,0,0,0,0,0,0,0,0,0,0,0,0,0,0,0,0,0,0,0,0,0,0,0,0,0,0,0,0,0,0,0,0,0,0,0],"id":4,"left_children":[1,3,5,7,9,11,13,15,17,19,21,23,25,27,-1,29,31,33,35,37,-1,39,41,43,45,47,49,51,-1,53,-1,55,57,59,61,63,65,67,69,71,73,75,77,79,81,83,85,87,-1,-1,89,91,93,-1,-1,-1,-1,-1,-1,-1,-1,-1,-1,-1,-1,-1,-1,-1,-1,-1,-1,-1,-1,-1,-1,-1,-1,-1,-1,-1,-1,-1,-1,-1,-1,-1,-1,-1,-1,-1,-1,-1,-1,-1,-1],"loss_changes":[9.349771E1,8.984315E1,8.464714E0,6.422133E1,2.5789337E1,8.082825E0,6.0973883E0,8.30854E0,6.1585377E1,5.5057297E0,1.9737122E1,7.4125977E0,3.8528342E0,3.6728346E0,0E0,5.281248E0,6.456501E0,1.4064194E1,5.4691296E1,6.2928896E0,0E0,2.0374382E1,1.0556324E1,6.805588E0,3.7249033E0,3.1710474E0,6.2499666E-1,2.768504E0,0E0,3.0750809E0,0E0,5.623222E0,5.5260315E0,8.390976E0,4.8178806E0,1.155825E1,4.7304585E1,1.4560468E0,5.657346E0,4.7454047E0,1.8097061E1,6.6941004E0,9.921379E0,6.89666E0,2.0814824E0,3.4783936E-1,2.7102277E0,2.762124E0,0E0,0E0,3.6531663E-1,4.039205E0,2.9957626E0,0E0,0E0,0E0,0E0,0E0,0E0,0E0,0E0,0E0,0E0,0E0,0E0,0E0,0E0,0E0,0E0,0E0,0E0,0E0,0E0,0E0,0E0,0E0,0E0,0E0,0E0,0E0,0E0,0E0,0E0,0E0,0E0,0E0,0E0,0E0,0E0,0E0,0E0,0E0,0E0,0E0,0E0],"parents":[2147483647,0,0,1,1,2,2,3,3,4,4,5,5,6,6,7,7,8,8,9,9,10,10,11,11,12,12,13,13,15,15,16,16,17,17,18,18,19,19,21,21,22,22,23,23,24,24,25,25,26,26,27,27,29,29,31,31,32,32,33,33,34,34,35,35,36,36,37,37,38,38,39,39,40,40,41,41,42,42,43,43,44,44,45,45,46,46,47,47,50,50,51,51,52,52],"right_children":[2,4,6,8,10,12,14,16,18,20,22,24,26,28,-1,30,32,34,36,38,-1,40,42,44,46,48,50,52,-1,54,-1,56,58,60,62,64,66,68,70,72,74,76,78,80,82,84,86,88,-1,-1,90,92,94,-1,-1,-1,-1,-1,-1,-1,-1,-1,-1,-1,-1,-1,-1,-1,-1,-1,-1,-1,-1,-1,-1,-1,-1,-1,-1,-1,-1,-1,-1,-1,-1,-1,-1,-1,-1,-1,-1,-1,-1,-1,-1],"split_conditions":[1E0,1E0,1E0,0E0,0E0,1E0,1E0,0E0,0E0,1E0,1E0,1E0,4E0,1E0,-1.340004E-1,1E0,0E0,1E0,0E0,0E0,-1.358857E-1,0E0,0E0,1E0,0E0,1E0,0E0,3E0,-7.4890465E-2,1E0,6.912794E-2,0E0,1E0,1E0,1E0,2E0,0E0,1.54E2,1E0,1E0,0E0,1.52E2,1E0,0E0,1E0,1.61E2,0E0,0E0,1.04516305E-1,1.00844376E-1,2.24E2,0E0,0E0,-8.079659E-2,-1.3464822E-2,1.2243064E-1,-4.4695875E-3,-3.4833457E-2,8.132537E-3,-3.3771053E-2,1.9329956E-2,2.1012442E-2,-7.25739E-2,6.673843E-2,-3.659988E-2,-9.590195E-3,5.3617754E-3,5.860389E-3,9.686725E-2,-2.4461437E-2,5.962838E-2,-1.9234933E-2,-9.852373E-2,5.7861E-2,1.6096707E-2,-1.20019965E-1,8.950337E-3,4.9607866E-2,-5.1004823E-2,-1.5035269E-2,-4.770952E-2,2.1696908E-3,1.03696026E-1,-8.374971E-2,-1.414557E-2,-8.0860786E-2,3.5998926E-2,6.9613695E-2,-2.8507719E-2,1.1580522E-2,5.8977533E-2,-3.557562E-2,6.4808615E-2,-1.173137E-1,1.1553801E-2],"split_indices":[71,10,35,45,21,32,46,17,32,37,7,45,1,31,0,39,54,17,69,46,0,45,49,69,7,51,63,1,0,9,0,3,21,39,3,1,10,0,19,3,71,0,3,54,55,0,51,46,0,0,0,36,63,0,0,0,0,0,0,0,0,0,0,0,0,0,0,0,0,0,0,0,0,0,0,0,0,0,0,0,0,0,0,0,0,0,0,0,0,0,0,0,0,0,0],"split_type":[0,0,0,0,0,0,0,0,0,0,0,0,0,0,0,0,0,0,0,0,0,0,0,0,0,0,0,0,0,0,0,0,0,0,0,0,0,0,0,0,0,0,0,0,0,0,0,0,0,0,0,0,0,0,0,0,0,0,0,0,0,0,0,0,0,0,0,0,0,0,0,0,0,0,0,0,0,0,0,0,0,0,0,0,0,0,0,0,0,0,0,0,0,0,0],"sum_hessian":[1.8488182E4,1.773497E4,7.532106E2,1.4613758E4,3.121213E3,7.141088E2,3.91017E1,6.4778406E2,1.3965974E4,1.8710782E2,2.9341052E3,6.747521E2,3.9356773E1,3.7356915E1,1.7447841E0,6.421209E1,5.8357196E2,8.104584E2,1.3155515E4,1.8412398E2,2.983834E0,2.6090537E3,3.250514E2,6.4720996E2,2.7542095E1,3.0384426E1,8.972347E0,3.4616734E1,2.740179E0,6.2212887E1,1.9992018E0,5.2968178E1,5.3060376E2,7.358955E2,7.456283E1,4.302914E2,1.2725224E4,7.4341235E0,1.7668987E2,1.1463197E2,2.4944219E3,1.7062826E1,3.0798856E2,6.2508527E2,2.2124723E1,4.194133E0,2.3347961E1,2.9139603E1,1.244822E0,2.2439346E0,6.7284126E0,2.4899658E1,9.717077E0,5.396554E1,8.247346E0,2.748641E0,5.0219536E1,4.9912625E2,3.147753E1,7.054442E2,3.0451313E1,6.9571434E1,4.9913993E0,1.022288E1,4.200685E2,2.6795366E3,1.00456875E4,2.7393634E0,4.6947603E0,1.6922893E2,7.460934E0,1.0740436E2,7.2276144E0,1.0766652E2,2.3867554E3,4.932377E0,1.2130448E1,2.9862952E2,9.35904E0,7.4483055E1,5.506022E2,2.0883526E1,1.2411978E0,2.7149665E0,1.4791665E0,1.2314522E0,2.2116508E1,2.2424212E0,2.6897182E1,3.9873908E0,2.7410216E0,4.2402472E0,2.065941E1,1.2457358E0,8.471342E0],"tree_param":{"num_deleted":"0","num_feature":"72","num_nodes":"95","size_leaf_vector":"1"}},{"base_weights":[4.164908E-3,-1.0813447E-2,3.1950146E-1,2.2283883E-1,-3.0368062E-2,2.9951245E-1,8.10057E-1,1.624036E-1,3.51939E-1,1.570578E-1,-5.5244286E-2,6.5560275E-1,2.7388057E-1,-9.3788296E-2,9.125831E-1,1.2814966E-1,6.203159E-1,3.1830925E-1,8.006393E-1,1.9173883E-1,-1.6331151E-1,3.099344E-1,-6.881871E-2,7.137389E-1,-6.837989E-2,2.5457048E-1,8.9267564E-1,6.6870235E-2,-7.587015E-2,-7.035469E-2,1.0373446E0,-3.3501458E-1,1.4814273E-1,-5.6061006E-1,6.969872E-1,6.688141E-1,2.6257682E-1,1.0457503E0,5.9798313E-3,-8.4990084E-2,2.2277364E-1,-2.2414012E-1,1.0627692E0,1.107097E0,2.8344837E-1,-8.077635E-2,2.8561038E-1,9.113623E-1,2.567426E-1,7.177566E-1,2.3103088E-1,-8.351901E-2,1.032153E0,2.653726E-2,-3.5040986E-2,8.487573E-2,1.2177635E0,8.333571E-2,-4.558618E-2,1.2661758E-2,4.8336565E-2,4.0364615E-3,-1.1752029E-1,-4.0680178E-2,7.968195E-2,7.31969E-2,-5.6384634E-2,2.0000596E-2,4.8886105E-2,-1.6867894E-3,1.192191E-1,5.4905463E-2,-5.3720113E-2,-9.572597E-2,-5.225528E-3,2.4305811E-2,-2.619432E-2,6.4372435E-2,-2.501885E-2,3.26227E-2,1.22685015E-1,-2.8936302E-2,1.24273874E-1,7.5872496E-2,2.537148E-2,2.23497E-2,-9.346931E-3,2.5766239E-2,9.999118E-2,-3.6171854E-2,9.863944E-2,1.0732877E-2,1.085907E-1,-1.0734897E-2,8.335661E-2,-1.596207E-2,2.5881026E-2,-3.812572E-2,1.17599085E-1,7.606191E-2,-4.715101E-2,-1.3610412E-2,1.324132E-1],"categories":[],"categories_nodes":[],"categories_segments":[],"categories_sizes":[],"default_left":[0,0,0,0,0,0,0,0,0,0,0,0,0,0,0,0,0,0,0,0,0,0,0,0,0,0,0,0,0,0,0,0,0,0,0,0,0,0,0,0,0,0,0,0,0,0,0,0,0,0,0,0,0,0,0,0,0,0,0,0,0,0,0,0,0,0,0,0,0,0,0,0,0,0,0,0,0,0,0,0,0,0,0,0,0,0,0,0,0,0,0,0,0,0,0,0,0,0,0,0,0,0,0],"id":5,"left_children":[1,3,5,7,9,11,13,15,17,19,21,23,25,27,29,31,33,35,37,39,41,43,45,47,-1,49,51,-1,-1,53,55,57,59,61,63,65,67,69,71,73,75,77,79,81,83,85,87,89,91,93,95,-1,97,-1,-1,99,101,-1,-1,-1,-1,-1,-1,-1,-1,-1,-1,-1,-1,-1,-1,-1,-1,-1,-1,-1,-1,-1,-1,-1,-1,-1,-1,-1,-1,-1,-1,-1,-1,-1,-1,-1,-1,-1,-1,-1,-1,-1,-1,-1,-1,-1,-1],"loss_changes":[8.709318E1,8.04367E1,7.9563828E0,1.0550697E1,7.574957E1,7.167824E0,3.0648937E0,1.4475422E1,6.2739105E0,2.1183186E1,7.111662E1,4.641226E0,8.766262E0,2.627675E0,3.625433E0,8.055996E0,6.214676E0,7.7193947E0,5.741102E0,1.4775551E1,1.4147157E1,1.054287E1,5.8631996E1,4.4267826E0,0E0,7.80748E0,6.255028E0,0E0,0E0,4.8780796E-1,4.324873E0,5.474793E0,5.9244347E0,1.7005657E0,7.029047E0,4.678877E0,4.862854E0,3.5284042E0,2.6435256E0,4.918029E0,1.5256882E1,4.196434E0,6.861439E-1,3.4264755E0,6.8593407E0,5.1690018E1,8.756813E0,3.7607288E0,1.9860631E0,3.423626E0,7.6094017E0,0E0,4.7488976E0,0E0,0E0,2.3057265E0,3.2893982E0,0E0,0E0,0E0,0E0,0E0,0E0,0E0,0E0,0E0,0E0,0E0,0E0,0E0,0E0,0E0,0E0,0E0,0E0,0E0,0E0,0E0,0E0,0E0,0E0,0E0,0E0,0E0,0E0,0E0,0E0,0E0,0E0,0E0,0E0,0E0,0E0,0E0,0E0,0E0,0E0,0E0,0E0,0E0,0E0,0E0,0E0],"parents":[2147483647,0,0,1,1,2,2,3,3,4,4,5,5,6,6,7,7,8,8,9,9,10,10,11,11,12,12,13,13,14,14,15,15,16,16,17,17,18,18,19,19,20,20,21,21,22,22,23,23,25,25,26,26,29,29,30,30,31,31,32,32,33,33,34,34,35,35,36,36,37,37,38,38,39,39,40,40,41,41,42,42,43,43,44,44,45,45,46,46,47,47,48,48,49,49,50,50,52,52,55,55,56,56],"right_children":[2,4,6,8,10,12,14,16,18,20,22,24,26,28,30,32,34,36,38,40,42,44,46,48,-1,50,52,-1,-1,54,56,58,60,62,64,66,68,70,72,74,76,78,80,82,84,86,88,90,92,94,96,-1,98,-1,-1,100,102,-1,-1,-1,-1,-1,-1,-1,-1,-1,-1,-1,-1,-1,-1,-1,-1,-1,-1,-1,-1,-1,-1,-1,-1,-1,-1,-1,-1,-1,-1,-1,-1,-1,-1,-1,-1,-1,-1,-1,-1,-1,-1,-1,-1,-1,-1],"split_conditions":[1E0,0E0,1E0,1.92E2,0E0,0E0,0E0,1E0,1E0,1E0,0E0,1E0,1E0,1.55E2,0E0,0E0,0E0,0E0,2.31E2,0E0,1E0,0E0,1E0,2.11E2,-6.837989E-2,0E0,1.24E2,6.6870235E-2,-7.587015E-2,1.54E2,0E0,0E0,1E0,1.61E2,1.32E2,1E0,2.31E2,0E0,3E0,0E0,1E0,0E0,0E0,1.24E2,0E0,0E0,1E0,0E0,1E0,0E0,0E0,-8.351901E-2,0E0,2.653726E-2,-3.5040986E-2,3E0,0E0,8.333571E-2,-4.558618E-2,1.2661758E-2,4.8336565E-2,4.0364615E-3,-1.1752029E-1,-4.0680178E-2,7.968195E-2,7.31969E-2,-5.6384634E-2,2.0000596E-2,4.8886105E-2,-1.6867894E-3,1.192191E-1,5.4905463E-2,-5.3720113E-2,-9.572597E-2,-5.225528E-3,2.4305811E-2,-2.619432E-2,6.4372435E-2,-2.501885E-2,3.26227E-2,1.22685015E-1,-2.8936302E-2,1.24273874E-1,7.5872496E-2,2.537148E-2,2.23497E-2,-9.346931E-3,2.5766239E-2,9.999118E-2,-3.6171854E-2,9.863944E-2,1.0732877E-2,1.085907E-1,-1.0734897E-2,8.335661E-2,-1.596207E-2,2.5881026E-2,-3.812572E-2,1.17599085E-1,7.606191E-2,-4.715101E-2,-1.3610412E-2,1.324132E-1],"split_indices":[45,20,32,0,54,16,29,51,32,20,42,42,6,0,34,21,35,70,0,29,58,38,69,0,0,18,0,0,0,0,67,54,35,0,0,24,0,16,1,49,18,66,10,0,46,33,8,20,54,10,32,0,25,0,0,2,37,0,0,0,0,0,0,0,0,0,0,0,0,0,0,0,0,0,0,0,0,0,0,0,0,0,0,0,0,0,0,0,0,0,0,0,0,0,0,0,0,0,0,0,0,0,0],"split_type":[0,0,0,0,0,0,0,0,0,0,0,0,0,0,0,0,0,0,0,0,0,0,0,0,0,0,0,0,0,0,0,0,0,0,0,0,0,0,0,0,0,0,0,0,0,0,0,0,0,0,0,0,0,0,0,0,0,0,0,0,0,0,0,0,0,0,0,0,0,0,0,0,0,0,0,0,0,0,0,0,0,0,0,0,0,0,0,0,0,0,0,0,0,0,0,0,0,0,0,0,0,0,0],"sum_hessian":[1.8437621E4,1.7602477E4,8.351445E2,1.3585979E3,1.6243878E4,8.039941E2,3.115039E1,9.269336E2,4.316643E2,1.9027329E3,1.43411455E4,5.2336235E1,7.516579E2,3.1821914E0,2.7968199E1,8.636114E2,6.3322224E1,4.0315738E2,2.8506948E1,1.7172378E3,1.8549501E2,5.132008E2,1.3827944E4,5.060679E1,1.7294465E0,7.3028015E2,2.1377691E1,1.4796736E0,1.7025176E0,3.1992092E0,2.476899E1,3.5084267E1,8.285271E2,3.4757218E0,5.98465E1,5.3800728E1,3.4935663E2,2.1545359E1,6.961591E0,1.729905E2,1.5442473E3,1.7750575E2,7.9892693E0,1.5191002E1,4.980098E2,1.3377394E4,4.5055096E2,3.4635E1,1.5971791E1,3.3892372E1,6.963878E2,1.2241948E0,2.0153496E1,1.4788301E0,1.720379E0,4.1787796E0,2.059021E1,2.7360175E0,3.2348248E1,7.7983075E2,4.8696346E1,2.2297256E0,1.2459962E0,4.7088227E0,5.513768E1,5.1565002E1,2.2357252E0,2.751559E2,7.4200714E1,2.716734E0,1.8828625E1,3.4757283E0,3.4858625E0,5.235649E0,1.6775484E2,1.4826979E3,6.1549477E1,4.481487E0,1.7302426E2,1.9999431E0,5.9893265E0,1.2445729E0,1.3946428E1,2.7877886E1,4.701319E2,5.350348E2,1.2842358E4,4.3489578E2,1.5655166E1,1.7150276E0,3.2919968E1,1.4490138E1,1.4816529E0,4.1805253E0,2.9711847E1,4.5917675E1,6.5047015E2,1.7090505E0,1.8444447E1,1.7212322E0,2.4575474E0,1.4794943E0,1.9110716E1],"tree_param":{"num_deleted":"0","num_feature":"72","num_nodes":"103","size_leaf_vector":"1"}},{"base_weights":[-1.4733211E-3,-3.141225E-2,1.410052E-1,-5.545978E-2,1.6133447E-1,-2.3864783E-1,1.5855691E-1,-7.100922E-2,2.4988149E-1,4.201379E-1,1.2936388E-1,9.3998665E-1,-2.9270914E-1,5.055158E-1,1.4042896E-1,-2.854618E-1,-4.8797406E-2,2.125501E-1,5.951194E-1,4.497512E-1,-3.2005513E-1,-3.3558947E-1,1.508827E-1,1.117978E-1,4.6764195E-1,-2.4214302E-1,-1.2316273E0,-2.0830223E-1,5.487081E-1,1.0957422E-1,3.4348416E-1,-2.4186465E-1,-5.6237704E-1,-2.9545464E-2,-2.530843E-1,1.651146E-1,5.0213444E-1,1.9680147E-1,8.873688E-1,-1.661888E-1,4.8996338E-1,6.0006667E-2,-5.896277E-1,-1.4841406E-1,-2.4893406E-1,-4.756978E-2,2.004322E-1,5.8784258E-2,1.389377E-2,8.816772E-2,-2.7528083E-1,-1.3868813E-1,-3.0346384E-2,-4.9440026E-1,9.391343E-2,-1.9788004E-1,5.937806E-1,9.149775E-2,4.4278935E-1,3.70647E-1,-4.0708125E-1,-2.0320691E-2,-6.537964E-2,-5.9281062E-2,5.2459735E-2,-1.6282644E-3,-3.4626264E-2,-2.757754E-2,3.7700072E-2,-3.1083056E-3,2.2394553E-2,-1.8771661E-2,6.107205E-2,-1.03069104E-1,3.394847E-2,-3.956912E-2,9.432122E-2,-8.811795E-2,2.4906506E-3,5.2367266E-2,-3.3356126E-2,-1.0795804E-2,-8.629646E-2,-5.6614585E-2,3.3978694E-3,-1.0089439E-2,4.1625034E-2,1.7856877E-2,8.256646E-2,-4.834006E-2,-4.249802E-3,4.9151494E-3,-9.042116E-2,-6.1107386E-2,4.0979613E-2,2.4609964E-2,6.635936E-2,-1.35665685E-2,1.1847694E-2,5.191795E-2,-3.7640147E-2,-3.3205144E-2,4.0552553E-2,-1.4173399E-1,-1.4618819E-2],"categories":[],"categories_nodes":[],"categories_segments":[],"categories_sizes":[],"default_left":[0,0,0,0,0,0,0,0,0,0,0,0,0,0,0,0,0,0,0,0,0,0,0,0,0,0,0,0,0,0,0,0,0,0,0,0,0,0,0,0,0,0,0,0,0,0,0,0,0,0,0,0,0,0,0,0,0,0,0,0,0,0,0,0,0,0,0,0,0,0,0,0,0,0,0,0,0,0,0,0,0,0,0,0,0,0,0,0,0,0,0,0,0,0,0,0,0,0,0,0,0,0,0,0,0],"id":6,"left_children":[1,3,5,7,9,11,13,15,17,19,21,23,25,27,29,31,33,35,37,39,41,43,45,-1,47,49,51,53,55,57,59,61,63,65,67,69,71,73,75,77,79,-1,81,-1,83,85,87,-1,-1,-1,89,-1,-1,91,-1,93,95,97,99,101,103,-1,-1,-1,-1,-1,-1,-1,-1,-1,-1,-1,-1,-1,-1,-1,-1,-1,-1,-1,-1,-1,-1,-1,-1,-1,-1,-1,-1,-1,-1,-1,-1,-1,-1,-1,-1,-1,-1,-1,-1,-1,-1,-1,-1],"loss_changes":[7.859474E1,7.0580925E1,2.135696E1,6.4292175E1,1.3921684E1,9.308691E0,1.9166473E1,6.1349243E1,8.330864E0,4.2050858E0,1.5107098E1,1.9884586E-2,6.1737833E0,4.7848167E0,1.8182243E1,1.4457985E1,4.5907135E1,8.072927E0,7.2146893E0,4.5041428E0,2.2665699E0,6.286655E0,1.4159328E1,0E0,5.6051016E-2,5.106229E0,5.477209E-1,3.5396523E0,4.933502E0,1.5174274E1,7.9620514E0,1.6526653E1,5.7254753E0,4.4814877E1,1.4477211E1,5.912715E0,6.337843E0,5.27997E0,2.9762E0,1.6191627E0,4.8349113E0,0E0,7.584708E-1,0E0,5.7077427E0,7.172743E0,1.5595585E1,0E0,0E0,0E0,6.1621065E0,0E0,0E0,1.8606776E0,0E0,2.4846804E0,3.118824E0,1.4708052E1,8.312971E0,9.209801E0,3.445325E0,0E0,0E0,0E0,0E0,0E0,0E0,0E0,0E0,0E0,0E0,0E0,0E0,0E0,0E0,0E0,0E0,0E0,0E0,0E0,0E0,0E0,0E0,0E0,0E0,0E0,0E0,0E0,0E0,0E0,0E0,0E0,0E0,0E0,0E0,0E0,0E0,0E0,0E0,0E0,0E0,0E0,0E0,0E0,0E0],"parents":[2147483647,0,0,1,1,2,2,3,3,4,4,5,5,6,6,7,7,8,8,9,9,10,10,11,11,12,12,13,13,14,14,15,15,16,16,17,17,18,18,19,19,20,20,21,21,22,22,24,24,25,25,26,26,27,27,28,28,29,29,30,30,31,31,32,32,33,33,34,34,35,35,36,36,37,37,38,38,39,39,40,40,42,42,44,44,45,45,46,46,50,50,53,53,55,55,56,56,57,57,58,58,59,59,60,60],"right_children":[2,4,6,8,10,12,14,16,18,20,22,24,26,28,30,32,34,36,38,40,42,44,46,-1,48,50,52,54,56,58,60,62,64,66,68,70,72,74,76,78,80,-1,82,-1,84,86,88,-1,-1,-1,90,-1,-1,92,-1,94,96,98,100,102,104,-1,-1,-1,-1,-1,-1,-1,-1,-1,-1,-1,-1,-1,-1,-1,-1,-1,-1,-1,-1,-1,-1,-1,-1,-1,-1,-1,-1,-1,-1,-1,-1,-1,-1,-1,-1,-1,-1,-1,-1,-1,-1,-1,-1],"split_conditions":[1E0,1E0,0E0,1E0,0E0,0E0,0E0,0E0,1E0,1E0,0E0,1.61E2,1E0,0E0,1E0,1E0,1E0,1E0,1.54E2,0E0,0E0,0E0,0E0,1.117978E-1,3E0,0E0,2.27E2,1E0,0E0,1E0,1E0,1E0,1E0,1E0,1E0,1.52E2,1.38E2,0E0,0E0,1.44E2,1E0,6.0006667E-2,1.54E2,-1.4841406E-1,1.55E2,1E0,1E0,5.8784258E-2,1.389377E-2,8.816772E-2,1.71E2,-1.3868813E-1,-3.0346384E-2,3E0,9.391343E-2,1.82E2,0E0,0E0,1E0,0E0,0E0,-2.0320691E-2,-6.537964E-2,-5.9281062E-2,5.2459735E-2,-1.6282644E-3,-3.4626264E-2,-2.757754E-2,3.7700072E-2,-3.1083056E-3,2.2394553E-2,-1.8771661E-2,6.107205E-2,-1.03069104E-1,3.394847E-2,-3.956912E-2,9.432122E-2,-8.811795E-2,2.4906506E-3,5.2367266E-2,-3.3356126E-2,-1.0795804E-2,-8.629646E-2,-5.6614585E-2,3.3978694E-3,-1.0089439E-2,4.1625034E-2,1.7856877E-2,8.256646E-2,-4.834006E-2,-4.249802E-3,4.9151494E-3,-9.042116E-2,-6.1107386E-2,4.0979613E-2,2.4609964E-2,6.635936E-2,-1.35665685E-2,1.1847694E-2,5.191795E-2,-3.7640147E-2,-3.3205144E-2,4.0552553E-2,-1.4173399E-1,-1.4618819E-2],"split_indices":[10,29,49,45,54,46,59,17,17,38,45,0,33,64,14,54,20,14,0,52,46,52,36,0,2,66,0,69,15,32,46,3,55,33,55,0,0,4,59,0,33,0,0,0,0,4,45,0,0,0,0,0,0,2,0,0,36,29,3,19,17,0,0,0,0,0,0,0,0,0,0,0,0,0,0,0,0,0,0,0,0,0,0,0,0,0,0,0,0,0,0,0,0,0,0,0,0,0,0,0,0,0,0,0,0],"split_type":[0,0,0,0,0,0,0,0,0,0,0,0,0,0,0,0,0,0,0,0,0,0,0,0,0,0,0,0,0,0,0,0,0,0,0,0,0,0,0,0,0,0,0,0,0,0,0,0,0,0,0,0,0,0,0,0,0,0,0,0,0,0,0,0,0,0,0,0,0,0,0,0,0,0,0,0,0,0,0,0,0,0,0,0,0,0,0,0,0,0,0,0,0,0,0,0,0,0,0,0,0,0,0,0,0],"sum_hessian":[1.8422975E4,1.5224614E4,3.19836E3,1.3536483E4,1.6881307E3,1.407727E2,3.0575874E3,1.2881274E4,6.552088E2,1.8427498E2,1.5038557E3,5.4550624E0,1.3531764E2,1.5048587E2,2.9071016E3,1.2078422E3,1.1673433E4,5.927311E2,6.2477726E1,1.7756349E2,6.711487E0,6.587662E1,1.4379791E3,2.9692903E0,2.4857724E0,1.2959605E2,5.721595E0,8.368072E0,1.4211781E2,2.5249663E3,3.8213522E2,1.045166E3,1.6267607E2,1.0669122E4,1.0043106E3,5.106534E2,8.207766E1,2.7148878E1,3.532885E1,1.0689963E1,1.6687352E2,1.2429566E0,5.46853E0,3.4901695E0,6.2386444E1,2.8730865E2,1.1506705E3,1.2429038E0,1.2428685E0,2.978491E0,1.2661755E2,4.4782896E0,1.2433051E0,7.153554E0,1.2145172E0,7.898333E0,1.3421947E2,2.3962476E3,1.2871861E2,3.692773E2,1.2857912E1,9.568626E2,8.8303474E1,1.586877E2,3.9883826E0,1.024131E4,4.278127E2,9.699426E2,3.4367977E1,1.179082E2,3.927452E2,1.1063315E1,7.101434E1,2.1790495E0,2.4969828E1,1.2196822E0,3.410917E1,1.4929242E0,9.197039E0,1.606613E2,6.212226E0,2.4848075E0,2.9837224E0,2.8938475E1,3.344797E1,2.58385E2,2.8923616E1,1.1130349E3,3.7635536E1,6.62817E1,6.0335854E1,3.4533198E0,3.7002344E0,4.69818E0,3.2001529E0,2.3200773E1,1.110187E2,2.539525E2,2.1422952E3,1.1807432E2,1.0644293E1,1.7059462E1,3.5221786E2,1.7292138E0,1.1128697E1],"tree_param":{"num_deleted":"0","num_feature":"72","num_nodes":"105","size_leaf_vector":"1"}},{"base_weights":[-1.1528528E-3,3.1798387E-1,-1.4464715E-2,2.76897E-1,6.3299245E-1,2.0035651E-1,-3.2922287E-2,9.158113E-1,2.5158927E-1,-8.482497E-2,6.8364614E-1,8.258222E-1,1.8508762E-1,-3.1717718E-1,-1.9605719E-2,-3.5409477E-2,9.976392E-1,-3.0663124E-1,2.7360412E-1,7.1692526E-1,-4.3874778E-2,9.1109335E-1,-7.5350605E-2,5.1216865E-1,1.5528941E-1,-2.8929117E-1,-7.16759E-1,-1.96922E-1,2.3665514E-3,1.0803643E0,-2.5877198E-2,-4.4473612E-1,9.472243E-2,2.3457563E-1,6.8987393E-1,8.570949E-1,3.65115E-1,-1.1834978E-2,9.83354E-1,5.619936E-1,-4.8397604E-1,-1.1663952E-1,1.899774E-1,-3.2550102E-1,-1.3402805E-2,-8.239157E-1,7.389257E-2,-1.6474457E-1,-4.1672495E-1,1.4734802E-2,-2.7582175E-1,1.16216555E-1,-2.5925105E-3,-5.563263E-2,5.666356E-2,1.8208796E-2,4.689973E-2,2.4471201E-3,8.147149E-2,8.939092E-2,-1.0287649E-2,4.5493882E-2,-7.305214E-2,-3.5146587E-2,1.0531098E-1,6.0667414E-2,-2.0837873E-2,-5.8038533E-2,-1.15362685E-2,-2.3283064E-2,3.4827877E-2,1.707804E-2,4.987811E-2,2.9591022E-2,-3.396389E-2,-1.0054847E-2,8.484115E-2,-9.373787E-2,5.5057246E-2,-5.6246053E-2,-1.4953162E-2,6.764262E-2,-4.6950113E-2,1.7611813E-2,-7.224329E-4,2.4702465E-2,-3.1167934E-2],"categories":[],"categories_nodes":[],"categories_segments":[],"categories_sizes":[],"default_left":[0,0,0,0,0,0,0,0,0,0,0,0,0,0,0,0,0,0,0,0,0,0,0,0,0,0,0,0,0,0,0,0,0,0,0,0,0,0,0,0,0,0,0,0,0,0,0,0,0,0,0,0,0,0,0,0,0,0,0,0,0,0,0,0,0,0,0,0,0,0,0,0,0,0,0,0,0,0,0,0,0,0,0,0,0,0,0],"id":7,"left_children":[1,3,5,7,9,11,13,15,17,-1,19,21,23,25,27,-1,29,31,33,35,-1,37,-1,39,41,43,45,47,49,51,-1,53,-1,55,57,59,61,-1,63,65,67,69,71,73,75,77,-1,79,81,83,85,-1,-1,-1,-1,-1,-1,-1,-1,-1,-1,-1,-1,-1,-1,-1,-1,-1,-1,-1,-1,-1,-1,-1,-1,-1,-1,-1,-1,-1,-1,-1,-1,-1,-1,-1,-1],"loss_changes":[7.828838E1,9.375122E0,7.014951E1,1.0353096E1,6.909622E0,1.3215755E1,6.166139E1,2.9053707E0,7.838051E0,0E0,3.382164E0,5.140024E0,1.325124E1,7.915535E0,6.063595E1,0E0,2.7049484E0,4.648457E0,9.708893E0,3.6390648E0,0E0,2.4840164E0,0E0,5.9186325E0,1.1860079E1,6.8197823E0,7.921259E0,1.2067581E1,4.765238E1,2.0288944E0,0E0,2.873755E0,0E0,6.7680492E0,4.2635937E0,2.0910416E0,2.7508805E0,0E0,3.1493187E0,3.8717804E0,1.4473164E-1,7.784171E0,6.5151253E0,5.405216E0,6.1159124E0,7.3994713E0,0E0,8.9822235E0,1.2921459E1,4.699215E1,1.1129749E1,0E0,0E0,0E0,0E0,0E0,0E0,0E0,0E0,0E0,0E0,0E0,0E0,0E0,0E0,0E0,0E0,0E0,0E0,0E0,0E0,0E0,0E0,0E0,0E0,0E0,0E0,0E0,0E0,0E0,0E0,0E0,0E0,0E0,0E0,0E0,0E0],"parents":[2147483647,0,0,1,1,2,2,3,3,4,4,5,5,6,6,7,7,8,8,10,10,11,11,12,12,13,13,14,14,16,16,17,17,18,18,19,19,21,21,23,23,24,24,25,25,26,26,27,27,28,28,29,29,31,31,33,33,34,34,35,35,36,36,38,38,39,39,40,40,41,41,42,42,43,43,44,44,45,45,47,47,48,48,49,49,50,50],"right_children":[2,4,6,8,10,12,14,16,18,-1,20,22,24,26,28,-1,30,32,34,36,-1,38,-1,40,42,44,46,48,50,52,-1,54,-1,56,58,60,62,-1,64,66,68,70,72,74,76,78,-1,80,82,84,86,-1,-1,-1,-1,-1,-1,-1,-1,-1,-1,-1,-1,-1,-1,-1,-1,-1,-1,-1,-1,-1,-1,-1,-1,-1,-1,-1,-1,-1,-1,-1,-1,-1,-1,-1,-1],"split_conditions":[0E0,1E0,0E0,0E0,0E0,0E0,0E0,0E0,0E0,-8.482497E-2,1E0,1E0,0E0,1E0,0E0,-3.5409477E-2,1E0,1E0,1E0,3E0,-4.3874778E-2,0E0,-7.5350605E-2,1E0,0E0,1E0,1E0,1E0,1E0,1E0,-2.5877198E-2,1E0,9.472243E-2,1E0,0E0,1E0,1E0,-1.1834978E-2,0E0,1E0,3E0,1E0,1E0,2E0,9E0,1E0,7.389257E-2,0E0,0E0,0E0,0E0,1.16216555E-1,-2.5925105E-3,-5.563263E-2,5.666356E-2,1.8208796E-2,4.689973E-2,2.4471201E-3,8.147149E-2,8.939092E-2,-1.0287649E-2,4.5493882E-2,-7.305214E-2,-3.5146587E-2,1.0531098E-1,6.0667414E-2,-2.0837873E-2,-5.8038533E-2,-1.15362685E-2,-2.3283064E-2,3.4827877E-2,1.707804E-2,4.987811E-2,2.9591022E-2,-3.396389E-2,-1.0054847E-2,8.484115E-2,-9.373787E-2,5.5057246E-2,-5.6246053E-2,-1.4953162E-2,6.764262E-2,-4.6950113E-2,1.7611813E-2,-7.224329E-4,2.4702465E-2,-3.1167934E-2],"split_indices":[71,29,20,30,11,33,45,15,45,0,37,66,54,3,29,0,33,20,17,2,0,51,0,38,7,7,48,63,71,15,0,6,0,10,36,61,28,0,15,71,2,10,11,1,1,67,0,49,47,54,13,0,0,0,0,0,0,0,0,0,0,0,0,0,0,0,0,0,0,0,0,0,0,0,0,0,0,0,0,0,0,0,0,0,0,0,0],"split_type":[0,0,0,0,0,0,0,0,0,0,0,0,0,0,0,0,0,0,0,0,0,0,0,0,0,0,0,0,0,0,0,0,0,0,0,0,0,0,0,0,0,0,0,0,0,0,0,0,0,0,0,0,0,0,0,0,0,0,0,0,0,0,0,0,0,0,0,0,0,0,0,0,0,0,0,0,0,0,0,0,0,0,0,0,0,0,0],"sum_hessian":[1.8426068E4,7.3689764E2,1.768917E4,6.5353546E2,8.336219E1,1.3988295E3,1.6290341E4,2.355991E1,6.299756E2,2.2357938E0,8.11264E1,3.206949E1,1.36676E3,7.279851E2,1.5562355E4,1.2247906E0,2.233512E1,2.3411558E1,6.06564E2,7.9141106E1,1.9852912E0,3.0828127E1,1.2413607E0,1.12768196E2,1.2539918E3,6.821063E2,4.587879E1,1.714927E3,1.3847429E4,2.108683E1,1.2482885E0,2.1670034E1,1.741523E0,5.559984E2,5.0565628E1,5.556603E1,2.357508E1,1.9801794E0,2.8847946E1,1.0781153E2,4.956664E0,1.4159848E2,1.1123933E3,6.028089E2,7.929741E1,4.3137344E1,2.741448E0,1.4974601E3,2.1746693E2,1.3258886E4,5.8854297E2,1.9587952E1,1.4988787E0,1.9921875E1,1.7481602E0,4.5573483E2,1.0026355E2,8.177189E0,4.238844E1,5.3580086E1,1.9859446E0,2.232923E1,1.2458502E0,1.2321174E0,2.761583E1,1.02102234E2,5.709295E0,3.4736383E0,1.4830256E0,1.1368567E2,2.7912815E1,1.0487501E3,6.364323E1,1.29661875E1,5.898427E2,7.281752E1,6.479894E0,4.0141693E1,2.9956512E0,5.3843517E1,1.4436166E3,9.471307E0,2.0799564E2,1.5871907E3,1.1671695E4,3.7394695E1,5.5114825E2],"tree_param":{"num_deleted":"0","num_feature":"72","num_nodes":"87","size_leaf_vector":"1"}},{"base_weights":[-6.072354E-5,1.3071327E-2,-2.8596422E-1,-2.1248634E-1,2.882814E-2,-7.746043E-1,-2.5464657E-1,-5.649235E-1,-1.7631789E-1,-3.1186804E-1,4.0618464E-2,-8.613944E-1,9.817236E-2,-2.94835E-1,9.3184866E-2,-6.3242E-1,1.0302703E0,-6.1079043E-1,-1.5489493E-1,-2.8811264E-1,-1.0932423E0,-9.658773E-2,6.890373E-2,-9.311066E-1,2.6629452E-2,-5.1102513E-1,-2.4654534E-1,-5.4331344E-1,2.0760146E-1,5.6157418E-2,-6.766913E-1,1.23250715E-1,4.326761E-2,-6.9123447E-1,2.8359705E-1,-1.2830272E-1,-5.3184414E-1,-2.5235033E-1,-7.075325E-1,-1.2585173E0,3.0634938E-2,-7.986069E-2,-4.8245996E-1,-1.2431691E-1,9.414839E-2,-1.1379312E0,-5.815073E-1,5.8631176E-1,-5.384013E-1,-2.7435815E-1,4.6724126E-1,4.7274087E-2,-8.136357E-1,-7.478192E-2,2.7443555E-1,2.5138516E-2,-7.255178E-2,-7.4459516E-2,6.564724E-2,6.553409E-2,-3.7160178E-3,-4.520244E-2,-9.469087E-3,-6.0870647E-2,3.3317883E-2,-2.8914595E-2,1.649488E-2,-3.3117015E-2,-1.0730292E-1,-7.1112834E-2,-1.5859988E-1,-4.8806515E-2,-6.036746E-3,1.0710168E-1,-5.093319E-2,-1.0649602E-2,-5.5123996E-2,1.0696984E-2,-2.0009957E-2,4.311251E-3,-1.2097875E-1,2.0425832E-2,-9.74892E-2,-2.1333346E-2,1.1252024E-1,-5.7955313E-2,1.9076593E-2,-5.0887216E-2,-2.2345504E-2,-6.995576E-2,5.73797E-2,-6.222366E-3,-9.354022E-2,1.5976598E-2,7.926284E-2],"categories":[],"categories_nodes":[],"categories_segments":[],"categories_sizes":[],"default_left":[0,0,0,0,0,0,0,0,0,0,0,0,0,0,0,0,0,0,0,0,0,0,0,0,0,0,0,0,0,0,0,0,0,0,0,0,0,0,0,0,0,0,0,0,0,0,0,0,0,0,0,0,0,0,0,0,0,0,0,0,0,0,0,0,0,0,0,0,0,0,0,0,0,0,0,0,0,0,0,0,0,0,0,0,0,0,0,0,0,0,0,0,0,0,0],"id":8,"left_children":[1,3,5,7,9,11,13,15,17,19,21,23,-1,25,27,29,31,33,35,37,39,41,43,45,-1,47,49,51,53,-1,55,-1,-1,57,59,61,63,65,67,69,-1,71,73,75,77,79,81,83,85,87,89,-1,91,-1,93,-1,-1,-1,-1,-1,-1,-1,-1,-1,-1,-1,-1,-1,-1,-1,-1,-1,-1,-1,-1,-1,-1,-1,-1,-1,-1,-1,-1,-1,-1,-1,-1,-1,-1,-1,-1,-1,-1,-1,-1],"loss_changes":[6.9327484E1,6.27507E1,1.2211884E1,1.4596157E1,6.630156E1,8.215918E0,1.07008705E1,1.2155746E1,9.650753E0,9.933113E0,6.1912334E1,3.9119072E0,0E0,7.022091E0,5.927379E0,5.8313637E0,3.689289E-2,3.7114773E0,9.947277E0,7.8787346E0,4.0709095E0,1.7561373E1,6.452315E1,2.528122E0,0E0,4.0432205E0,1.127763E1,3.801982E0,4.5729017E0,0E0,4.7091103E0,0E0,0E0,3.73357E0,5.896821E-1,1.012689E1,4.5593433E0,7.671688E0,5.3739376E0,1.4615803E0,0E0,2.0776062E1,5.2665253E0,1.1571894E1,4.4153694E1,2.3157616E0,5.9000573E0,1.747813E0,3.7588692E0,6.3466682E0,3.0661135E0,0E0,8.745966E-1,0E0,3.7155118E0,0E0,0E0,0E0,0E0,0E0,0E0,0E0,0E0,0E0,0E0,0E0,0E0,0E0,0E0,0E0,0E0,0E0,0E0,0E0,0E0,0E0,0E0,0E0,0E0,0E0,0E0,0E0,0E0,0E0,0E0,0E0,0E0,0E0,0E0,0E0,0E0,0E0,0E0,0E0,0E0],"parents":[2147483647,0,0,1,1,2,2,3,3,4,4,5,5,6,6,7,7,8,8,9,9,10,10,11,11,13,13,14,14,15,15,16,16,17,17,18,18,19,19,20,20,21,21,22,22,23,23,25,25,26,26,27,27,28,28,30,30,33,33,34,34,35,35,36,36,37,37,38,38,39,39,41,41,42,42,43,43,44,44,45,45,46,46,47,47,48,48,49,49,50,50,52,52,54,54],"right_children":[2,4,6,8,10,12,14,16,18,20,22,24,-1,26,28,30,32,34,36,38,40,42,44,46,-1,48,50,52,54,-1,56,-1,-1,58,60,62,64,66,68,70,-1,72,74,76,78,80,82,84,86,88,90,-1,92,-1,94,-1,-1,-1,-1,-1,-1,-1,-1,-1,-1,-1,-1,-1,-1,-1,-1,-1,-1,-1,-1,-1,-1,-1,-1,-1,-1,-1,-1,-1,-1,-1,-1,-1,-1,-1,-1,-1,-1,-1,-1],"split_conditions":[1E0,0E0,0E0,0E0,0E0,1E0,1E0,1E0,0E0,1E0,0E0,1E0,9.817236E-2,0E0,0E0,0E0,1.61E2,1E0,1E0,1E0,1E0,1E0,0E0,1.83E2,2.6629452E-2,0E0,1E0,0E0,0E0,5.6157418E-2,0E0,1.23250715E-1,4.326761E-2,1E0,1.55E2,0E0,1E0,1E0,3E0,1.56E2,3.0634938E-2,0E0,0E0,1E0,1E0,0E0,1.92E2,1E0,1E0,0E0,0E0,4.7274087E-2,1.52E2,-7.478192E-2,1E0,2.5138516E-2,-7.255178E-2,-7.4459516E-2,6.564724E-2,6.553409E-2,-3.7160178E-3,-4.520244E-2,-9.469087E-3,-6.0870647E-2,3.3317883E-2,-2.8914595E-2,1.649488E-2,-3.3117015E-2,-1.0730292E-1,-7.1112834E-2,-1.5859988E-1,-4.8806515E-2,-6.036746E-3,1.0710168E-1,-5.093319E-2,-1.0649602E-2,-5.5123996E-2,1.0696984E-2,-2.0009957E-2,4.311251E-3,-1.2097875E-1,2.0425832E-2,-9.74892E-2,-2.1333346E-2,1.1252024E-1,-5.7955313E-2,1.9076593E-2,-5.0887216E-2,-2.2345504E-2,-6.995576E-2,5.73797E-2,-6.222366E-3,-9.354022E-2,1.5976598E-2,7.926284E-2],"split_indices":[42,35,32,29,69,64,7,69,51,37,10,31,0,10,70,24,0,53,13,20,11,18,29,0,0,56,6,10,49,0,30,0,0,64,0,7,30,31,2,0,0,51,62,13,71,30,0,36,32,14,35,0,0,0,10,0,0,0,0,0,0,0,0,0,0,0,0,0,0,0,0,0,0,0,0,0,0,0,0,0,0,0,0,0,0,0,0,0,0,0,0,0,0,0,0],"split_type":[0,0,0,0,0,0,0,0,0,0,0,0,0,0,0,0,0,0,0,0,0,0,0,0,0,0,0,0,0,0,0,0,0,0,0,0,0,0,0,0,0,0,0,0,0,0,0,0,0,0,0,0,0,0,0,0,0,0,0,0,0,0,0,0,0,0,0,0,0,0,0,0,0,0,0,0,0,0,0,0,0,0,0,0,0,0,0,0,0,0,0,0,0,0,0],"sum_hessian":[1.8463182E4,1.765329E4,8.0989233E2,1.1518698E3,1.650142E4,4.7351234E1,7.625411E2,1.0584665E2,1.0460231E3,5.5110486E2,1.5950314E4,4.560708E1,1.7441547E0,6.8369885E2,7.884222E1,1.02128876E2,3.7177744E0,4.7860825E1,9.9816223E2,5.3617285E2,1.4932048E1,2.7257634E3,1.3224551E4,4.3116024E1,2.4910538E0,1.2308259E2,5.606163E2,1.1441989E1,6.740022E1,3.233613E0,9.889526E1,1.9839282E0,1.7338462E0,4.41197E1,3.7411246E0,9.3363824E2,6.452394E1,4.9552316E2,4.0649647E1,1.3445135E1,1.4869123E0,2.6136714E3,1.120922E2,1.5277035E3,1.1696848E4,2.5672876E1,1.744315E1,2.4989443E0,1.2058365E2,5.4018353E2,2.043271E1,2.2470913E0,9.194898E0,3.7404068E0,6.365982E1,4.73553E0,9.415974E1,4.2869835E1,1.249865E0,1.2496862E0,2.4914384E0,8.664987E1,8.469884E2,5.9530613E1,4.9933324E0,4.5565283E2,3.987035E1,2.0966213E1,1.9683434E1,6.2199407E0,7.225195E0,1.1802805E2,2.4956433E3,1.2452874E0,1.1084692E2,1.4676879E3,6.0015686E1,1.1209064E4,4.877828E2,1.4953315E0,2.4177546E1,5.9797235E0,1.1463425E1,1.2492865E0,1.2496579E0,1.1433607E2,6.247575E0,9.473525E1,4.454483E2,1.2441312E0,1.918858E1,1.49296E0,7.7019377E0,5.319643E1,1.0463389E1],"tree_param":{"num_deleted":"0","num_feature":"72","num_nodes":"95","size_leaf_vector":"1"}},{"base_weights":[1.634575E-3,-1.1547152E-2,2.849825E-1,6.864513E-3,-2.2664009E-1,3.1054136E-1,-1.4805946E-1,1.6743991E-1,-1.3701169E-2,-2.0934734E-1,-6.6875404E-1,-3.350427E-2,3.3886856E-1,-8.585482E-1,1.7652027E-2,1.8565996E-1,-2.83929E-1,-2.6075242E-3,-3.022321E-1,2.112478E-1,-2.2600412E-1,7.97325E-1,-7.830718E-1,5.1128034E-2,-1.5347064E-1,6.602101E-1,3.1410536E-1,-1.0965001E-1,2.0129459E-2,-1.0062567E-1,1.2981202E-1,5.3181744E-1,1.6285545E-1,-3.60068E-1,7.5780237E-1,-2.0416293E-2,1.7502104E-1,2.6312798E-1,-3.4208187E-1,-7.653382E-1,3.321496E-1,1.2201347E-1,-2.522581E-1,9.666034E-2,2.1743238E-2,-8.803728E-1,9.925024E-2,1.3031779E-1,-1.1382393E0,-2.9398277E-1,7.757641E-1,3.4196806E-1,5.1401053E-2,2.8781816E-2,9.5709614E-2,-8.371091E-2,5.6479532E-2,-2.503102E-2,1.8128844E-2,5.4469932E-2,-4.3662414E-2,1.0196576E-1,2.1882562E-2,2.6813572E-2,-3.2241133E-3,5.3184748E-2,1.4330247E-2,8.8193014E-2,-9.695154E-3,-8.475158E-2,-3.1136949E-2,-9.120523E-3,-1.0784598E-1,1.2836285E-2,8.662855E-2,1.6348213E-2,-1.0498511E-1,-2.6829574E-2,2.4424022E-2,-9.527911E-2,7.857305E-2,-5.9084184E-2,2.0960119E-2,-1.376919E-1,-3.6317397E-2,-9.8891616E-2,8.0003284E-2,8.197662E-2,-4.5801375E-2,6.497824E-2,3.1524178E-2,1.5041197E-2,-8.0607526E-2,1.1368077E-2,-8.6613186E-2],"categories":[],"categories_nodes":[],"categories_segments":[],"categories_sizes":[],"default_left":[0,0,0,0,0,0,0,0,0,0,0,0,0,0,0,0,0,0,0,0,0,0,0,0,0,0,0,0,0,0,0,0,0,0,0,0,0,0,0,0,0,0,0,0,0,0,0,0,0,0,0,0,0,0,0,0,0,0,0,0,0,0,0,0,0,0,0,0,0,0,0,0,0,0,0,0,0,0,0,0,0,0,0,0,0,0,0,0,0,0,0,0,0,0,0],"id":9,"left_children":[1,3,5,7,9,11,13,15,17,19,21,23,25,27,29,31,33,35,37,39,41,43,45,47,-1,49,51,-1,-1,-1,53,55,57,59,61,63,65,67,69,71,73,75,77,-1,-1,79,-1,81,83,85,87,89,91,93,-1,-1,-1,-1,-1,-1,-1,-1,-1,-1,-1,-1,-1,-1,-1,-1,-1,-1,-1,-1,-1,-1,-1,-1,-1,-1,-1,-1,-1,-1,-1,-1,-1,-1,-1,-1,-1,-1,-1,-1,-1],"loss_changes":[6.88824E1,6.979103E1,9.119812E0,5.3612747E1,1.0483704E1,7.559082E0,5.474308E0,1.5211098E1,4.6065582E1,9.426426E0,9.314272E0,7.6791773E0,5.487213E0,2.4373422E0,4.561012E0,1.3903717E1,5.9766116E0,4.384762E1,1.2094902E1,6.336522E0,1.1800842E1,2.0663166E-1,9.270754E0,5.5733867E0,0E0,5.7735825E0,4.859764E0,0E0,0E0,0E0,2.9525466E0,5.39797E0,1.2719612E1,4.926502E0,5.135977E-1,4.2993896E1,1.4219204E1,8.029118E0,7.469738E0,1.1634142E0,4.9542904E0,4.5956345E0,9.606064E0,0E0,0E0,6.372219E0,0E0,3.2628691E0,1.841116E-1,5.472898E0,2.8258743E0,4.749832E0,5.6458564E0,2.5909615E0,0E0,0E0,0E0,0E0,0E0,0E0,0E0,0E0,0E0,0E0,0E0,0E0,0E0,0E0,0E0,0E0,0E0,0E0,0E0,0E0,0E0,0E0,0E0,0E0,0E0,0E0,0E0,0E0,0E0,0E0,0E0,0E0,0E0,0E0,0E0,0E0,0E0,0E0,0E0,0E0,0E0],"parents":[2147483647,0,0,1,1,2,2,3,3,4,4,5,5,6,6,7,7,8,8,9,9,10,10,11,11,12,12,13,13,14,14,15,15,16,16,17,17,18,18,19,19,20,20,21,21,22,22,23,23,25,25,26,26,30,30,31,31,32,32,33,33,34,34,35,35,36,36,37,37,38,38,39,39,40,40,41,41,42,42,45,45,47,47,48,48,49,49,50,50,51,51,52,52,53,53],"right_children":[2,4,6,8,10,12,14,16,18,20,22,24,26,28,30,32,34,36,38,40,42,44,46,48,-1,50,52,-1,-1,-1,54,56,58,60,62,64,66,68,70,72,74,76,78,-1,-1,80,-1,82,84,86,88,90,92,94,-1,-1,-1,-1,-1,-1,-1,-1,-1,-1,-1,-1,-1,-1,-1,-1,-1,-1,-1,-1,-1,-1,-1,-1,-1,-1,-1,-1,-1,-1,-1,-1,-1,-1,-1,-1,-1,-1,-1,-1,-1],"split_conditions":[1E0,1E0,1E0,0E0,1E0,0E0,0E0,1E0,1E0,0E0,0E0,1E0,0E0,1E0,0E0,0E0,1E0,1E0,0E0,0E0,0E0,2.13E2,1E0,1E0,-1.5347064E-1,0E0,1E0,-1.0965001E-1,2.0129459E-2,-1.0062567E-1,1E0,0E0,0E0,1.34E2,1.55E2,0E0,0E0,1.81E2,0E0,1.53E2,1.92E2,1E0,1E0,9.666034E-2,2.1743238E-2,1E0,9.925024E-2,0E0,1.81E2,3E0,1E0,0E0,1E0,1E0,9.5709614E-2,-8.371091E-2,5.6479532E-2,-2.503102E-2,1.8128844E-2,5.4469932E-2,-4.3662414E-2,1.0196576E-1,2.1882562E-2,2.6813572E-2,-3.2241133E-3,5.3184748E-2,1.4330247E-2,8.8193014E-2,-9.695154E-3,-8.475158E-2,-3.1136949E-2,-9.120523E-3,-1.0784598E-1,1.2836285E-2,8.662855E-2,1.6348213E-2,-1.0498511E-1,-2.6829574E-2,2.4424022E-2,-9.527911E-2,7.857305E-2,-5.9084184E-2,2.0960119E-2,-1.376919E-1,-3.6317397E-2,-9.8891616E-2,8.0003284E-2,8.197662E-2,-4.5801375E-2,6.497824E-2,3.1524178E-2,1.5041197E-2,-8.0607526E-2,1.1368077E-2,-8.6613186E-2],"split_indices":[45,20,30,54,18,35,36,18,33,33,15,37,46,63,47,20,7,17,16,43,43,0,21,21,0,7,9,0,0,0,17,27,51,0,0,33,46,0,49,0,0,68,55,0,0,6,0,4,0,2,13,43,54,20,0,0,0,0,0,0,0,0,0,0,0,0,0,0,0,0,0,0,0,0,0,0,0,0,0,0,0,0,0,0,0,0,0,0,0,0,0,0,0,0,0],"split_type":[0,0,0,0,0,0,0,0,0,0,0,0,0,0,0,0,0,0,0,0,0,0,0,0,0,0,0,0,0,0,0,0,0,0,0,0,0,0,0,0,0,0,0,0,0,0,0,0,0,0,0,0,0,0,0,0,0,0,0,0,0,0,0,0,0,0,0,0,0,0,0,0,0,0,0,0,0,0,0,0,0,0,0,0,0,0,0,0,0,0,0,0,0,0,0],"sum_hessian":[1.8440453E4,1.762163E4,8.188227E2,1.6233069E4,1.3885607E3,7.73455E2,4.5367687E1,1.8421956E3,1.4390874E4,1.3377112E3,5.084945E1,5.882448E1,7.146305E2,7.7894406E0,3.7578247E1,1.7712842E3,7.091138E1,1.3859021E4,5.318526E2,5.0514053E1,1.2871971E3,3.2460122E0,4.7603436E1,5.6599545E1,2.2249343E0,4.9294575E1,6.6533594E2,6.332994E0,1.4564465E0,2.9229565E0,3.4655293E1,1.0809854E2,1.6631855E3,6.669134E1,4.2200413E0,1.2596955E4,1.2620665E3,3.465068E1,4.972019E2,4.977553E0,4.55365E1,9.0037E1,1.1971602E3,1.9963771E0,1.2496352E0,4.5608288E1,1.9951472E0,5.390116E1,2.6983848E0,5.158004E0,4.4136574E1,6.0126355E2,6.407239E1,3.1805862E1,2.8494284E0,1.9692693E0,1.0612927E2,7.049512E1,1.5926904E3,4.725749E0,6.1965588E1,2.2399497E0,1.9800916E0,4.95047E2,1.2101908E4,1.0174063E2,1.1603259E3,1.221307E1,2.243761E1,2.6958048E1,4.7024387E2,1.9882467E0,2.989306E0,3.3858803E1,1.1677697E1,8.779085E1,2.246153E0,1.1601454E3,3.7014812E1,4.411877E1,1.4895183E0,4.699783E0,4.9201378E1,1.4693742E0,1.2290105E0,3.21308E0,1.9449239E0,4.2940678E1,1.195895E0,4.6172226E1,5.550913E2,5.8179157E1,5.8932323E0,2.9847271E1,1.9585905E0],"tree_param":{"num_deleted":"0","num_feature":"72","num_nodes":"95","size_leaf_vector":"1"}},{"base_weights":[1.6533843E-3,-9.323475E-3,3.367667E-1,2.858595E-3,-3.0277228E-1,3.9152005E-1,-7.2985105E-2,-2.7080005E-1,1.5508188E-2,3.5146135E-1,-3.257406E-1,3.511947E-1,7.422901E-1,-8.213286E-1,6.1233122E-2,2.2666304E-1,-2.8404346E-1,2.9174803E-2,-2.7752274E-1,-7.437596E-2,4.808776E-1,-2.9806113E-1,-6.5744543E-1,3.1537423E-1,7.216547E-1,-4.4583723E-1,9.037844E-1,5.723823E-2,-1.0647238E0,-7.368554E-1,2.0124899E-1,-5.00574E-2,3.818996E-1,-3.05487E-1,1.6239474E-2,-2.1586896E-1,4.459887E-2,-3.231282E-1,1.022406E-1,7.676429E-1,-1.7297153E-1,4.896364E-1,-3.1071955E-1,-7.193917E-1,3.3557734E-1,1.9070399E-1,4.2459476E-1,-5.6192786E-1,8.693133E-1,-1.4560239E-1,-6.3324E-1,7.055486E-1,1.3153609E0,-3.6390916E-1,-1.2629534E-1,-2.9233354E-1,-1.3064474E-1,-1.1252111E-1,2.8403485E-1,-5.9934743E-2,4.9601253E-2,-5.5266257E-2,-2.703524E-2,-2.197671E-2,3.621559E-2,3.91501E-2,-2.3713775E-2,-1.8210119E-2,6.059516E-3,2.1930916E-2,-3.464069E-2,4.4309087E-3,1.0562014E-1,8.7331705E-2,-2.667791E-2,-4.1438185E-2,5.987646E-2,7.40631E-2,-7.591084E-2,-3.2976203E-2,1.1813935E-2,2.1571472E-2,-7.844913E-2,-3.3636426E-3,5.9688766E-2,1.4426376E-2,8.850884E-2,4.893274E-2,-7.955338E-3,-1.1299952E-1,-3.597504E-3,-3.1876087E-2,9.8530635E-2,1.1349942E-2,-3.0464113E-2,-7.948958E-2,-2.6965274E-2,8.591251E-2,1.0128292E-2,2.556187E-2,1.3997342E-1,1.8741036E-2,-7.5412154E-2,-7.18643E-2,-5.157262E-3,-1.0448576E-2,5.5250276E-2],"categories":[],"categories_nodes":[],"categories_segments":[],"categories_sizes":[],"default_left":[0,0,0,0,0,0,0,0,0,0,0,0,0,0,0,0,0,0,0,0,0,0,0,0,0,0,0,0,0,0,0,0,0,0,0,0,0,0,0,0,0,0,0,0,0,0,0,0,0,0,0,0,0,0,0,0,0,0,0,0,0,0,0,0,0,0,0,0,0,0,0,0,0,0,0,0,0,0,0,0,0,0,0,0,0,0,0,0,0,0,0,0,0,0,0,0,0,0,0,0,0,0,0,0,0,0,0],"id":10,"left_children":[1,3,5,7,9,11,13,15,17,19,21,23,25,27,29,31,33,35,37,-1,39,41,43,45,47,49,51,-1,53,55,57,-1,59,61,63,65,67,69,71,73,75,77,79,81,83,85,87,89,91,93,95,97,99,101,-1,103,-1,-1,105,-1,-1,-1,-1,-1,-1,-1,-1,-1,-1,-1,-1,-1,-1,-1,-1,-1,-1,-1,-1,-1,-1,-1,-1,-1,-1,-1,-1,-1,-1,-1,-1,-1,-1,-1,-1,-1,-1,-1,-1,-1,-1,-1,-1,-1,-1,-1,-1],"loss_changes":[6.770419E1,6.371052E1,1.3125412E1,5.924184E1,1.0788879E1,7.0254517E0,7.0463724E0,5.045723E0,6.5514984E1,3.8407717E0,6.109749E0,5.928295E0,1.0421555E1,4.226265E0,6.852018E0,2.467482E0,4.750271E0,5.9081863E1,1.26585655E1,0E0,4.3674016E0,6.490944E0,3.4442406E0,5.702919E0,8.0932255E0,2.970127E-1,2.8492393E0,0E0,8.499603E-1,1.9395013E0,6.0103707E0,0E0,2.221383E0,5.8244324E0,4.167089E0,1.2050934E1,5.3335403E1,8.297188E0,4.314511E0,1.9691839E0,1.6829356E0,3.8352952E0,5.1535034E0,3.172041E0,3.808315E-1,6.3272943E0,7.4012947E0,1.3776048E0,5.3271084E0,1.9763553E-1,1.8435836E-2,3.0128727E0,8.844223E-1,8.9068377E-1,0E0,6.237119E-1,0E0,0E0,5.2288656E0,0E0,0E0,0E0,0E0,0E0,0E0,0E0,0E0,0E0,0E0,0E0,0E0,0E0,0E0,0E0,0E0,0E0,0E0,0E0,0E0,0E0,0E0,0E0,0E0,0E0,0E0,0E0,0E0,0E0,0E0,0E0,0E0,0E0,0E0,0E0,0E0,0E0,0E0,0E0,0E0,0E0,0E0,0E0,0E0,0E0,0E0,0E0,0E0],"parents":[2147483647,0,0,1,1,2,2,3,3,4,4,5,5,6,6,7,7,8,8,9,9,10,10,11,11,12,12,13,13,14,14,15,15,16,16,17,17,18,18,20,20,21,21,22,22,23,23,24,24,25,25,26,26,28,28,29,29,30,30,32,32,33,33,34,34,35,35,36,36,37,37,38,38,39,39,40,40,41,41,42,42,43,43,44,44,45,45,46,46,47,47,48,48,49,49,50,50,51,51,52,52,53,53,55,55,58,58],"right_children":[2,4,6,8,10,12,14,16,18,20,22,24,26,28,30,32,34,36,38,-1,40,42,44,46,48,50,52,-1,54,56,58,-1,60,62,64,66,68,70,72,74,76,78,80,82,84,86,88,90,92,94,96,98,100,102,-1,104,-1,-1,106,-1,-1,-1,-1,-1,-1,-1,-1,-1,-1,-1,-1,-1,-1,-1,-1,-1,-1,-1,-1,-1,-1,-1,-1,-1,-1,-1,-1,-1,-1,-1,-1,-1,-1,-1,-1,-1,-1,-1,-1,-1,-1,-1,-1,-1,-1,-1,-1],"split_conditions":[1E0,1E0,1E0,0E0,0E0,1E0,0E0,0E0,1E0,0E0,1E0,1E0,0E0,0E0,0E0,1.51E2,1E0,0E0,1E0,-7.437596E-2,2.25E2,1.21E2,1E0,2.04E2,0E0,3E0,2.24E2,5.723823E-2,1.61E2,1E0,0E0,-5.00574E-2,0E0,0E0,1.56E2,0E0,0E0,0E0,1E0,1E0,2.32E2,1E0,1E0,0E0,1.55E2,1E0,1E0,1.55E2,0E0,1.81E2,1.54E2,1.85E2,0E0,3E0,-1.2629534E-1,0E0,-1.3064474E-1,-1.1252111E-1,3E0,-5.9934743E-2,4.9601253E-2,-5.5266257E-2,-2.703524E-2,-2.197671E-2,3.621559E-2,3.91501E-2,-2.3713775E-2,-1.8210119E-2,6.059516E-3,2.1930916E-2,-3.464069E-2,4.4309087E-3,1.0562014E-1,8.7331705E-2,-2.667791E-2,-4.1438185E-2,5.987646E-2,7.40631E-2,-7.591084E-2,-3.2976203E-2,1.1813935E-2,2.1571472E-2,-7.844913E-2,-3.3636426E-3,5.9688766E-2,1.4426376E-2,8.850884E-2,4.893274E-2,-7.955338E-3,-1.1299952E-1,-3.597504E-3,-3.1876087E-2,9.8530635E-2,1.1349942E-2,-3.0464113E-2,-7.948958E-2,-2.6965274E-2,8.591251E-2,1.0128292E-2,2.556187E-2,1.3997342E-1,1.8741036E-2,-7.5412154E-2,-7.18643E-2,-5.157262E-3,-1.0448576E-2,5.5250276E-2],"split_indices":[69,23,54,45,71,14,14,66,42,47,54,4,9,12,9,0,6,32,7,0,0,0,67,0,32,2,0,0,0,63,64,0,30,63,0,44,35,59,32,13,0,17,32,46,0,21,67,0,29,0,0,0,45,2,0,4,0,0,2,0,0,0,0,0,0,0,0,0,0,0,0,0,0,0,0,0,0,0,0,0,0,0,0,0,0,0,0,0,0,0,0,0,0,0,0,0,0,0,0,0,0,0,0,0,0,0,0],"split_type":[0,0,0,0,0,0,0,0,0,0,0,0,0,0,0,0,0,0,0,0,0,0,0,0,0,0,0,0,0,0,0,0,0,0,0,0,0,0,0,0,0,0,0,0,0,0,0,0,0,0,0,0,0,0,0,0,0,0,0,0,0,0,0,0,0,0,0,0,0,0,0,0,0,0,0,0,0,0,0,0,0,0,0,0,0,0,0,0,0,0,0,0,0,0,0,0,0,0,0,0,0,0,0,0,0,0,0],"sum_hessian":[1.8403568E4,1.7820809E4,5.8276025E2,1.7111443E4,7.093647E2,5.141069E2,6.865339E1,7.551115E2,1.6356333E4,2.357408E1,6.857906E2,4.6289285E2,5.121404E1,9.66213E0,5.899126E1,1.9163315E1,7.359482E2,1.5628346E4,7.2798706E2,1.9895896E0,2.158449E1,6.3472394E2,5.106664E1,4.237691E2,3.9123745E1,5.917535E0,4.52965E1,1.2355523E0,8.4265785E0,8.168466E0,5.0822796E1,2.979704E0,1.618361E1,6.8687994E2,4.9068253E1,9.2469086E2,1.4703654E4,6.500699E2,7.79172E1,1.4883043E1,6.701446E0,9.442827E0,6.252811E2,4.8327454E1,2.7391863E0,1.9917079E2,2.2459831E2,3.74688E0,3.5376865E1,2.9570475E0,2.9604871E0,3.240358E1,1.2892922E1,2.4832318E0,5.9433465E0,5.437869E0,2.7305965E0,2.2458699E0,4.8576927E1,1.2429924E0,1.49406185E1,8.365179E1,6.0322815E2,2.9384752E1,1.9683498E1,3.0696198E1,8.939947E2,9.68444E2,1.3735211E4,2.6403275E1,6.236666E2,7.4442924E1,3.4742742E0,1.3644861E1,1.2381822E0,5.4573574E0,1.2440886E0,8.201288E0,1.2415389E0,5.9891864E2,2.6362478E1,2.994867E0,4.5332584E1,1.4962975E0,1.2428887E0,1.8781738E2,1.1353414E1,1.9906744E2,2.5530857E1,1.2491906E0,2.4976895E0,2.9911804E0,3.2385685E1,1.233615E0,1.7234324E0,1.2281686E0,1.7323186E0,2.5500708E1,6.9028716E0,1.2479589E0,1.1644963E1,1.2445567E0,1.2386751E0,1.2462618E0,4.191607E0,2.0099785E1,2.8477142E1],"tree_param":{"num_deleted":"0","num_feature":"72","num_nodes":"107","size_leaf_vector":"1"}},{"base_weights":[-1.5351145E-3,3.160844E-1,-1.2713045E-2,3.4731227E-1,-1.0986745E-1,-3.412332E-2,1.4791796E-1,3.7947592E-1,5.1367474E-3,1.05430625E-1,-2.0638035E-1,-5.448811E-2,1.3565092E-1,4.203777E-1,1.2050657E-1,1.1149811E-1,4.1391635E-1,1.2599619E-1,-6.495039E-2,-3.017334E-1,9.983408E-2,-3.3893138E-1,-4.4533107E-2,1.17558494E-1,5.9170353E-1,4.5659426E-1,-3.2431728E-1,-2.6419932E-1,1.3920727E-1,-9.025309E-2,8.267026E-1,5.4678414E-2,4.4803032E-1,-1.3613658E-1,1.1955352E-1,-3.7735015E-1,8.284092E-2,-3.6436123E-1,3.0640858E-1,-5.6473956E-2,1.9500367E-1,-2.877924E-1,1.3456726E-1,6.680635E-1,-1.3492589E-1,4.894953E-1,-5.0961643E-1,-4.4244155E-1,1.2474438E-2,-1.999524E-1,-9.3189776E-1,1.5452307E-1,-3.2145554E-1,-2.052023E-2,9.1974884E-2,9.403175E-2,2.1272153E-3,1.1000892E-1,-4.6147434E-3,5.824022E-3,4.6697374E-2,-2.2220155E-2,6.0184356E-2,-2.892353E-2,-1.3720249E-1,-8.198236E-2,-3.352126E-2,4.6756633E-2,-6.801453E-2,2.0889152E-2,-6.737464E-3,2.317795E-2,-2.9044965E-2,6.430049E-2,-3.4262743E-2,-2.2700885E-2,1.5571115E-2,7.094508E-2,-7.510816E-2,5.2535474E-2,-2.6162013E-2,-1.0427678E-1,-3.9398577E-3,-5.9407115E-2,1.8746732E-2,5.9600275E-2,-2.4302162E-2,-1.2765984E-1,8.276542E-4,1.7599156E-2,-1.7156927E-2,-4.3478172E-2,5.1603824E-2],"categories":[],"categories_nodes":[],"categories_segments":[],"categories_sizes":[],"default_left":[0,0,0,0,0,0,0,0,0,0,0,0,0,0,0,0,0,0,0,0,0,0,0,0,0,0,0,0,0,0,0,0,0,0,0,0,0,0,0,0,0,0,0,0,0,0,0,0,0,0,0,0,0,0,0,0,0,0,0,0,0,0,0,0,0,0,0,0,0,0,0,0,0,0,0,0,0,0,0,0,0,0,0,0,0,0,0,0,0,0,0,0,0],"id":11,"left_children":[1,3,5,7,9,11,13,15,17,-1,19,21,23,25,27,29,31,-1,33,35,-1,37,39,41,43,45,47,49,51,53,55,57,59,61,-1,63,-1,65,67,69,71,73,75,77,-1,79,81,83,-1,85,87,89,91,-1,-1,-1,-1,-1,-1,-1,-1,-1,-1,-1,-1,-1,-1,-1,-1,-1,-1,-1,-1,-1,-1,-1,-1,-1,-1,-1,-1,-1,-1,-1,-1,-1,-1,-1,-1,-1,-1,-1,-1],"loss_changes":[6.51839E1,8.340633E0,6.1000687E1,6.4008865E0,5.093249E0,5.4117832E1,1.5529495E1,4.861763E0,4.5672092E0,0E0,5.0005255E0,3.9557007E1,1.3763681E1,5.2802887E0,1.3683056E1,9.010607E0,5.7457657E0,0E0,4.582266E0,3.6177466E0,0E0,7.864315E0,3.863497E1,1.1165157E1,1.0346222E1,6.0313454E0,5.543402E-1,3.6004968E0,1.2816807E1,5.9013886E0,1.2358942E0,4.475009E0,3.146988E0,3.1518464E0,0E0,2.8405614E0,0E0,5.7652397E0,3.251861E0,3.7222942E1,1.1518417E1,3.5536494E0,1.188147E1,4.173334E0,0E0,4.8887596E0,1.5832688E0,8.439599E-1,0E0,2.949071E0,2.4331555E0,1.2295425E1,5.781478E0,0E0,0E0,0E0,0E0,0E0,0E0,0E0,0E0,0E0,0E0,0E0,0E0,0E0,0E0,0E0,0E0,0E0,0E0,0E0,0E0,0E0,0E0,0E0,0E0,0E0,0E0,0E0,0E0,0E0,0E0,0E0,0E0,0E0,0E0,0E0,0E0,0E0,0E0,0E0,0E0],"parents":[2147483647,0,0,1,1,2,2,3,3,4,4,5,5,6,6,7,7,8,8,10,10,11,11,12,12,13,13,14,14,15,15,16,16,18,18,19,19,21,21,22,22,23,23,24,24,25,25,26,26,27,27,28,28,29,29,30,30,31,31,32,32,33,33,35,35,37,37,38,38,39,39,40,40,41,41,42,42,43,43,45,45,46,46,47,47,49,49,50,50,51,51,52,52],"right_children":[2,4,6,8,10,12,14,16,18,-1,20,22,24,26,28,30,32,-1,34,36,-1,38,40,42,44,46,48,50,52,54,56,58,60,62,-1,64,-1,66,68,70,72,74,76,78,-1,80,82,84,-1,86,88,90,92,-1,-1,-1,-1,-1,-1,-1,-1,-1,-1,-1,-1,-1,-1,-1,-1,-1,-1,-1,-1,-1,-1,-1,-1,-1,-1,-1,-1,-1,-1,-1,-1,-1,-1,-1,-1,-1,-1,-1,-1],"split_conditions":[0E0,1E0,1E0,1E0,0E0,1E0,0E0,0E0,0E0,1.05430625E-1,1E0,0E0,1E0,1E0,0E0,1E0,0E0,1.2599619E-1,1E0,1E0,9.983408E-2,1E0,1E0,0E0,1E0,1E0,1E0,1E0,1E0,1E0,1E0,0E0,0E0,1E0,1.1955352E-1,1E0,8.284092E-2,0E0,1E0,0E0,1E0,0E0,0E0,1E0,-1.3492589E-1,1E0,3E0,1E0,1.2474438E-2,0E0,3E0,1E0,1E0,-2.052023E-2,9.1974884E-2,9.403175E-2,2.1272153E-3,1.1000892E-1,-4.6147434E-3,5.824022E-3,4.6697374E-2,-2.2220155E-2,6.0184356E-2,-2.892353E-2,-1.3720249E-1,-8.198236E-2,-3.352126E-2,4.6756633E-2,-6.801453E-2,2.0889152E-2,-6.737464E-3,2.317795E-2,-2.9044965E-2,6.430049E-2,-3.4262743E-2,-2.2700885E-2,1.5571115E-2,7.094508E-2,-7.510816E-2,5.2535474E-2,-2.6162013E-2,-1.0427678E-1,-3.9398577E-3,-5.9407115E-2,1.8746732E-2,5.9600275E-2,-2.4302162E-2,-1.2765984E-1,8.276542E-4,1.7599156E-2,-1.7156927E-2,-4.3478172E-2,5.1603824E-2],"split_indices":[42,46,7,20,23,29,3,7,58,0,41,69,58,68,49,10,17,0,58,26,0,62,45,49,68,33,54,33,71,22,9,3,26,17,0,48,0,11,47,71,46,23,32,44,0,30,2,31,0,47,2,3,10,0,0,0,0,0,0,0,0,0,0,0,0,0,0,0,0,0,0,0,0,0,0,0,0,0,0,0,0,0,0,0,0,0,0,0,0,0,0,0,0],"split_type":[0,0,0,0,0,0,0,0,0,0,0,0,0,0,0,0,0,0,0,0,0,0,0,0,0,0,0,0,0,0,0,0,0,0,0,0,0,0,0,0,0,0,0,0,0,0,0,0,0,0,0,0,0,0,0,0,0,0,0,0,0,0,0,0,0,0,0,0,0,0,0,0,0,0,0,0,0,0,0,0,0,0,0,0,0,0,0,0,0,0,0,0,0],"sum_hessian":[1.8357828E4,6.231727E2,1.7734654E4,5.807787E2,4.2394066E1,1.5649538E4,2.0851167E3,5.3077783E2,5.000082E1,2.4857733E0,3.9908295E1,1.3974004E4,1.6755336E3,1.8929118E2,1.8958256E3,6.092936E1,4.6984848E2,1.7469381E0,4.8253883E1,3.767581E1,2.2324798E0,4.7140997E2,1.3502595E4,1.6128083E3,6.2725216E1,1.808813E2,8.409883E0,8.727616E1,1.8085494E3,4.820506E1,1.27243E1,4.0973972E1,4.288745E2,4.6518723E1,1.7351581E0,3.593738E1,1.7384315E0,4.5395703E2,1.7452944E1,1.2862182E4,6.4041223E2,6.430797E1,1.5485004E3,6.098192E1,1.7432997E0,1.7540196E2,5.479338E0,6.67008E0,1.7398019E0,8.080085E1,6.475311E0,1.7509979E3,5.7551414E1,4.39948E1,4.2102575E0,1.10045185E1,1.7197814E0,2.732396E0,3.8241577E1,2.0065746E1,4.0880878E2,4.228612E1,4.232601E0,3.4198627E1,1.7387562E0,2.5673267E1,4.2828378E2,1.5454455E1,1.9984889E0,5.0678876E2,1.2355394E4,5.957996E2,4.4612633E1,2.98099E0,6.132698E1,8.501109E1,1.4634893E3,5.973978E1,1.2421354E0,1.6769643E2,7.7055273E0,1.9972041E0,3.482134E0,5.421845E0,1.2482353E0,3.4886906E0,7.731216E1,4.476308E0,1.9990027E0,1.6432725E3,1.0772558E2,5.1115524E1,6.4358883E0],"tree_param":{"num_deleted":"0","num_feature":"72","num_nodes":"93","size_leaf_vector":"1"}},{"base_weights":[2.6508088E-3,-1.2114693E-2,2.6468998E-1,-2.6074512E-2,2.0868684E-1,2.3293816E-1,5.513177E-1,-1.4438464E-2,-2.9486868E-1,5.462916E-1,1.5714289E-1,1.9265245E-1,4.8302522E-1,-3.2386476E-1,6.143896E-1,-3.120131E-1,-4.376393E-3,2.0260699E-1,-3.160658E-1,-9.80467E-1,5.815746E-1,1.2606268E-1,4.6039754E-1,2.2094722E-1,-1.4555095E-1,-1.8495077E-1,5.342339E-1,-7.415242E-2,-1.12051204E-1,6.487525E-1,-8.657455E-2,-3.6785612E-1,-2.245365E-2,7.4000256E-3,-2.4966042E-1,-8.816517E-2,3.4069365E-1,-2.836668E-1,-6.541569E-1,-1.18332185E-1,-3.3407237E-2,6.276102E-1,-6.7753214E-1,-1.1086637E-1,1.6549227E-1,-4.9636066E-2,4.9890184E-1,-1.07260965E-1,2.5308818E-1,-1.0679455E-1,-2.7955523E-2,1.398425E-1,-8.511684E-2,-1.8392111E-1,5.864089E-1,-2.315031E-3,-1.3671464E-2,7.046381E-1,-1.4446858E-1,-4.0919565E-2,4.8202868E-3,-7.0471535E-3,1.301539E-1,-2.490865E-2,1.8390451E-3,-2.9118378E-2,7.5831683E-3,-8.449663E-2,4.476155E-2,-2.6053214E-2,-8.5208185E-2,-7.148547E-2,6.6369586E-2,5.672383E-2,1.2859236E-1,-9.905784E-2,-1.7705806E-2,-1.7945392E-2,9.2749245E-2,1.8282482E-2,-3.6913812E-2,4.3398593E-2,1.3167563E-1,-1.945406E-2,7.6759286E-2,-6.947644E-3,2.7699325E-2,-7.4643575E-2,9.909907E-3,5.3589106E-2,-8.231821E-2,6.41948E-2,-4.1550893E-2,-2.1509694E-2,6.237925E-2,-3.590481E-2,7.416067E-2,-6.306013E-2,2.9067723E-2],"categories":[],"categories_nodes":[],"categories_segments":[],"categories_sizes":[],"default_left":[0,0,0,0,0,0,0,0,0,0,0,0,0,0,0,0,0,0,0,0,0,0,0,0,0,0,0,0,0,0,0,0,0,0,0,0,0,0,0,0,0,0,0,0,0,0,0,0,0,0,0,0,0,0,0,0,0,0,0,0,0,0,0,0,0,0,0,0,0,0,0,0,0,0,0,0,0,0,0,0,0,0,0,0,0,0,0,0,0,0,0,0,0,0,0,0,0,0,0],"id":12,"left_children":[1,3,5,7,9,11,13,15,17,19,21,23,25,27,29,31,33,35,37,39,41,43,45,47,49,51,53,-1,55,57,-1,59,61,63,65,-1,67,69,71,-1,-1,73,75,77,79,-1,81,83,85,-1,87,89,-1,91,93,-1,-1,95,97,-1,-1,-1,-1,-1,-1,-1,-1,-1,-1,-1,-1,-1,-1,-1,-1,-1,-1,-1,-1,-1,-1,-1,-1,-1,-1,-1,-1,-1,-1,-1,-1,-1,-1,-1,-1,-1,-1,-1,-1],"loss_changes":[7.1253426E1,5.3742054E1,8.811905E0,5.1283386E1,1.7955719E1,8.834457E0,5.566433E0,4.706328E1,7.238411E0,7.9459877E0,8.432785E0,7.3511906E0,4.2813244E0,5.531038E-1,5.192421E0,8.304695E0,4.3923706E1,4.554576E0,6.9666214E0,5.9038877E-2,8.218815E0,7.664729E0,3.3188648E0,7.476658E0,6.4404163E0,2.1636734E0,4.3728294E0,0E0,9.8799765E-3,4.0716133E0,0E0,7.431389E0,5.443647E0,4.0906185E1,9.437225E0,0E0,3.6648664E0,7.6365814E0,4.980585E0,0E0,0E0,4.4465027E0,6.4298105E-1,8.525911E0,6.573656E0,0E0,3.709959E0,5.0124955E0,4.981209E0,0E0,4.997277E0,3.1915228E0,0E0,1.8868443E0,3.3208733E0,0E0,0E0,3.5626411E0,1.6056666E0,0E0,0E0,0E0,0E0,0E0,0E0,0E0,0E0,0E0,0E0,0E0,0E0,0E0,0E0,0E0,0E0,0E0,0E0,0E0,0E0,0E0,0E0,0E0,0E0,0E0,0E0,0E0,0E0,0E0,0E0,0E0,0E0,0E0,0E0,0E0,0E0,0E0,0E0,0E0,0E0],"parents":[2147483647,0,0,1,1,2,2,3,3,4,4,5,5,6,6,7,7,8,8,9,9,10,10,11,11,12,12,13,13,14,14,15,15,16,16,17,17,18,18,19,19,20,20,21,21,22,22,23,23,24,24,25,25,26,26,28,28,29,29,31,31,32,32,33,33,34,34,36,36,37,37,38,38,41,41,42,42,43,43,44,44,46,46,47,47,48,48,50,50,51,51,53,53,54,54,57,57,58,58],"right_children":[2,4,6,8,10,12,14,16,18,20,22,24,26,28,30,32,34,36,38,40,42,44,46,48,50,52,54,-1,56,58,-1,60,62,64,66,-1,68,70,72,-1,-1,74,76,78,80,-1,82,84,86,-1,88,90,-1,92,94,-1,-1,96,98,-1,-1,-1,-1,-1,-1,-1,-1,-1,-1,-1,-1,-1,-1,-1,-1,-1,-1,-1,-1,-1,-1,-1,-1,-1,-1,-1,-1,-1,-1,-1,-1,-1,-1,-1,-1,-1,-1,-1,-1],"split_conditions":[1E0,1E0,1E0,1E0,0E0,1E0,0E0,0E0,0E0,0E0,1E0,1E0,0E0,0E0,1E0,1E0,1E0,0E0,1E0,1E0,1E0,0E0,0E0,0E0,0E0,1E0,0E0,-7.415242E-2,0E0,1E0,-8.657455E-2,1E0,1E0,0E0,1E0,-8.816517E-2,0E0,1E0,1E0,-1.18332185E-1,-3.3407237E-2,1E0,3E0,1E0,1E0,-4.9636066E-2,1E0,1E0,0E0,-1.0679455E-1,0E0,1E0,-8.511684E-2,0E0,0E0,-2.315031E-3,-1.3671464E-2,0E0,0E0,-4.0919565E-2,4.8202868E-3,-7.0471535E-3,1.301539E-1,-2.490865E-2,1.8390451E-3,-2.9118378E-2,7.5831683E-3,-8.449663E-2,4.476155E-2,-2.6053214E-2,-8.5208185E-2,-7.148547E-2,6.6369586E-2,5.672383E-2,1.2859236E-1,-9.905784E-2,-1.7705806E-2,-1.7945392E-2,9.2749245E-2,1.8282482E-2,-3.6913812E-2,4.3398593E-2,1.3167563E-1,-1.945406E-2,7.6759286E-2,-6.947644E-3,2.7699325E-2,-7.4643575E-2,9.909907E-3,5.3589106E-2,-8.231821E-2,6.41948E-2,-4.1550893E-2,-2.1509694E-2,6.237925E-2,-3.590481E-2,7.416067E-2,-6.306013E-2,2.9067723E-2],"split_indices":[6,32,17,71,63,14,34,69,23,65,7,3,51,36,40,14,42,34,67,36,42,9,39,17,52,36,52,0,14,31,0,17,19,49,7,0,7,30,5,0,0,31,2,53,23,0,26,31,43,0,7,70,0,31,22,0,0,38,14,0,0,0,0,0,0,0,0,0,0,0,0,0,0,0,0,0,0,0,0,0,0,0,0,0,0,0,0,0,0,0,0,0,0,0,0,0,0,0,0],"split_type":[0,0,0,0,0,0,0,0,0,0,0,0,0,0,0,0,0,0,0,0,0,0,0,0,0,0,0,0,0,0,0,0,0,0,0,0,0,0,0,0,0,0,0,0,0,0,0,0,0,0,0,0,0,0,0,0,0,0,0,0,0,0,0,0,0,0,0,0,0,0,0,0,0,0,0,0,0,0,0,0,0,0,0,0,0,0,0,0,0,0,0,0,0,0,0,0,0,0,0],"sum_hessian":[1.8414002E4,1.7432652E4,9.8134924E2,1.639687E4,1.0357834E3,8.8511163E2,9.6237564E1,1.5717515E4,6.7935443E2,1.3592137E2,8.998621E2,7.638379E2,1.2127378E2,6.191384E0,9.004618E1,5.131014E2,1.5204413E4,2.7414078E1,6.519403E2,2.4650626E0,1.334563E2,8.1749384E2,8.236829E1,7.051872E2,5.8650673E1,8.449189E0,1.1282459E2,1.2418458E0,4.9495378E0,8.855205E1,1.4941353E0,4.299189E2,8.318244E1,1.4508796E4,6.956171E2,2.4886205E0,2.4925459E1,5.96607E2,5.5333336E1,1.2440116E0,1.221051E0,1.2923282E2,4.2234836E0,1.1637779E2,7.01116E2,2.7265942E0,7.96417E1,6.268995E1,6.4249725E2,5.7180367E0,5.2932632E1,6.2112074E0,2.2379823E0,7.470661E0,1.05353935E2,1.4959481E0,3.45359E0,8.282814E1,5.7239037E0,3.91078E2,3.884091E1,8.1184845E1,1.9975967E0,5.9526526E2,1.391353E4,6.1700995E2,7.860718E1,1.490839E0,2.343462E1,5.746759E2,2.1931118E1,5.333442E1,1.9989173E0,1.200821E2,9.15072E0,1.9958193E0,2.227664E0,1.09942825E2,6.434967E0,6.797372E2,2.1378847E1,7.52032E1,4.438498E0,5.7710136E1,4.97981E0,4.419829E1,5.9829895E2,7.2214093E0,4.5711224E1,4.7154775E0,1.4957297E0,1.2480453E0,6.222616E0,4.483061E0,1.0087087E2,2.489389E0,8.033875E1,2.4914043E0,3.2324996E0],"tree_param":{"num_deleted":"0","num_feature":"72","num_nodes":"99","size_leaf_vector":"1"}},{"base_weights":[2.8996358E-3,-2.2727527E-1,1.7207745E-2,-2.5447285E-1,6.035451E-2,-7.640811E-3,1.3554391E-1,4.2759272E-1,-2.6548558E-1,1.2293915E-1,-1.019411E-1,-1.6648646E-1,1.1714476E-2,-7.435942E-2,1.6151607E-1,4.894599E-1,-1.0451624E-2,-7.7927315E-1,-2.4908307E-1,1.1657932E-1,7.0402406E-2,-1.4906387E-1,-5.5391496E-1,-9.189145E-2,4.0096365E-2,9.1706496E-1,-1.1235229E-1,1.4667135E-1,5.8005345E-1,8.013975E-2,3.917113E-2,-9.2366254E-1,5.579265E-2,-2.67685E-1,2.0904116E-1,-7.449868E-1,1.406189E-1,-4.8982084E-1,-1.273298E-1,2.0362008E-1,-6.5744126E-1,4.287209E-1,-1.04552425E-1,-1.2945104E-1,5.8605988E-2,3.1398254E-4,1.11753E-1,-5.072628E-1,-4.971613E-2,-1.3950463E-1,1.6683985E-1,-9.8072484E-2,6.16568E-1,-1.009227E-1,1.9855851E-2,2.6587052E-3,-2.932778E-2,-1.0153691E-1,3.0750928E-2,-1.16021745E-1,-4.5254927E-2,1.88542E-2,-7.078465E-2,-5.6143563E-2,1.09300174E-1,3.7515473E-2,-1.43703325E-2,3.7750002E-2,-3.81699E-2,-7.3828995E-2,1.7528465E-2,4.9005684E-2,-7.079681E-2,-8.731364E-3,-4.9771715E-2,-1.0700507E-2,-7.462537E-2,-1.9752285E-2,7.152188E-3,-6.1598796E-2,5.3079415E-2,-9.3304366E-4,-7.0912905E-2,-2.076269E-2,4.712271E-2,1.5238575E-2,5.095923E-2,-9.907954E-3,7.069787E-2],"categories":[],"categories_nodes":[],"categories_segments":[],"categories_sizes":[],"default_left":[0,0,0,0,0,0,0,0,0,0,0,0,0,0,0,0,0,0,0,0,0,0,0,0,0,0,0,0,0,0,0,0,0,0,0,0,0,0,0,0,0,0,0,0,0,0,0,0,0,0,0,0,0,0,0,0,0,0,0,0,0,0,0,0,0,0,0,0,0,0,0,0,0,0,0,0,0,0,0,0,0,0,0,0,0,0,0,0,0],"id":13,"left_children":[1,3,5,7,9,11,13,15,17,19,-1,21,23,25,27,29,-1,31,33,-1,35,37,39,41,43,45,47,49,51,-1,-1,53,-1,55,57,59,61,63,65,67,69,71,73,75,77,-1,-1,79,81,83,85,-1,87,-1,-1,-1,-1,-1,-1,-1,-1,-1,-1,-1,-1,-1,-1,-1,-1,-1,-1,-1,-1,-1,-1,-1,-1,-1,-1,-1,-1,-1,-1,-1,-1,-1,-1,-1,-1],"loss_changes":[6.038915E1,8.410286E0,5.0763405E1,7.4793167E0,6.4447546E0,4.3869946E1,1.6344883E1,5.767126E-1,7.943817E0,4.809629E0,0E0,1.03787155E1,3.7405785E1,1.255457E1,1.6481392E1,1.2753081E-1,0E0,6.1926975E0,8.043171E0,0E0,5.032364E0,1.0931831E1,5.3355923E0,1.80753E1,3.1343315E1,2.251711E0,7.871865E0,1.4893555E1,5.790535E0,0E0,0E0,2.784874E0,0E0,6.794304E0,4.789193E0,3.228407E-1,3.3897364E0,1.0663031E1,1.1546299E1,1.0334193E0,4.0739326E0,4.888542E0,1.8061699E1,1.3530884E1,2.979715E1,0E0,0E0,5.247387E0,7.3611345E0,7.1774206E0,1.1848198E1,0E0,5.8626823E0,0E0,0E0,0E0,0E0,0E0,0E0,0E0,0E0,0E0,0E0,0E0,0E0,0E0,0E0,0E0,0E0,0E0,0E0,0E0,0E0,0E0,0E0,0E0,0E0,0E0,0E0,0E0,0E0,0E0,0E0,0E0,0E0,0E0,0E0,0E0,0E0],"parents":[2147483647,0,0,1,1,2,2,3,3,4,4,5,5,6,6,7,7,8,8,9,9,11,11,12,12,13,13,14,14,15,15,17,17,18,18,20,20,21,21,22,22,23,23,24,24,25,25,26,26,27,27,28,28,31,31,33,33,34,34,35,35,36,36,37,37,38,38,39,39,40,40,41,41,42,42,43,43,44,44,47,47,48,48,49,49,50,50,52,52],"right_children":[2,4,6,8,10,12,14,16,18,20,-1,22,24,26,28,30,-1,32,34,-1,36,38,40,42,44,46,48,50,52,-1,-1,54,-1,56,58,60,62,64,66,68,70,72,74,76,78,-1,-1,80,82,84,86,-1,88,-1,-1,-1,-1,-1,-1,-1,-1,-1,-1,-1,-1,-1,-1,-1,-1,-1,-1,-1,-1,-1,-1,-1,-1,-1,-1,-1,-1,-1,-1,-1,-1,-1,-1,-1,-1],"split_conditions":[0E0,1E0,1E0,2E0,1E0,0E0,0E0,1E0,0E0,0E0,-1.019411E-1,1E0,0E0,0E0,1E0,0E0,-1.0451624E-2,1E0,1E0,1.1657932E-1,0E0,0E0,0E0,0E0,0E0,0E0,0E0,0E0,0E0,8.013975E-2,3.917113E-2,1E0,5.579265E-2,0E0,0E0,0E0,1E0,1E0,0E0,9E0,1E0,1E0,1E0,1E0,0E0,3.1398254E-4,1.11753E-1,3E0,1E0,1E0,1E0,-9.8072484E-2,0E0,-1.009227E-1,1.9855851E-2,2.6587052E-3,-2.932778E-2,-1.0153691E-1,3.0750928E-2,-1.16021745E-1,-4.5254927E-2,1.88542E-2,-7.078465E-2,-5.6143563E-2,1.09300174E-1,3.7515473E-2,-1.43703325E-2,3.7750002E-2,-3.81699E-2,-7.3828995E-2,1.7528465E-2,4.9005684E-2,-7.079681E-2,-8.731364E-3,-4.9771715E-2,-1.0700507E-2,-7.462537E-2,-1.9752285E-2,7.152188E-3,-6.1598796E-2,5.3079415E-2,-9.3304366E-4,-7.0912905E-2,-2.076269E-2,4.712271E-2,1.5238575E-2,5.095923E-2,-9.907954E-3,7.069787E-2],"split_indices":[32,17,10,1,33,29,4,45,19,71,0,71,10,23,45,47,0,56,39,0,29,35,4,33,17,36,14,21,62,0,0,50,0,3,22,3,5,69,44,1,4,18,23,59,39,0,0,1,16,34,21,0,34,0,0,0,0,0,0,0,0,0,0,0,0,0,0,0,0,0,0,0,0,0,0,0,0,0,0,0,0,0,0,0,0,0,0,0,0],"split_type":[0,0,0,0,0,0,0,0,0,0,0,0,0,0,0,0,0,0,0,0,0,0,0,0,0,0,0,0,0,0,0,0,0,0,0,0,0,0,0,0,0,0,0,0,0,0,0,0,0,0,0,0,0,0,0,0,0,0,0,0,0,0,0,0,0,0,0,0,0,0,0,0,0,0,0,0,0,0,0,0,0,0,0,0,0,0,0,0,0],"sum_hessian":[1.8334406E4,1.0721306E3,1.7262275E4,9.796158E2,9.251487E1,1.426732E4,2.9949558E3,1.4964605E1,9.646511E2,8.828396E1,4.230912E0,1.5488187E3,1.2718501E4,3.2956827E2,2.6653877E3,1.3477729E1,1.4868766E0,2.8404572E1,9.362466E2,3.217934E0,8.506602E1,1.4834912E3,6.532756E1,2.734431E3,9.98407E3,1.1309479E1,3.182588E2,2.5753938E3,8.999386E1,1.4981725E0,1.1979557E1,2.5915499E1,2.489073E0,9.001135E2,3.613303E1,5.9826493E0,7.9083374E1,8.765522E1,1.3958359E3,7.7381554E0,5.75894E1,6.4140625E1,2.6702903E3,9.82098E2,9.001973E3,2.2171404E0,9.092339E0,4.259649E1,2.756623E2,1.6916412E2,2.4062295E3,1.466155E0,8.85277E1,2.4173096E1,1.7424035E0,7.201608E1,8.280975E2,1.9964426E0,3.413659E1,1.2460237E0,4.7366257E0,7.559158E1,3.491786E0,8.4478294E1,3.1769254E0,4.3356712E1,1.3524792E3,6.2396145E0,1.4985408E0,5.259628E1,4.993125E0,6.1396534E1,2.7440948E0,2.5592969E3,1.10993416E2,9.4874585E2,3.335218E1,4.3146686E2,8.570506E3,3.892601E1,3.670479E0,2.6070932E2,1.4952973E1,1.5278249E2,1.6381636E1,2.3102493E3,9.598027E1,9.918856E0,7.860885E1],"tree_param":{"num_deleted":"0","num_feature":"72","num_nodes":"89","size_leaf_vector":"1"}},{"base_weights":[4.0021254E-4,2.7371928E-1,-1.0915868E-2,2.5596637E-1,7.377293E-1,-4.2701146E-4,-2.934055E-1,-1.7969134E-1,2.737175E-1,8.979784E-1,-4.7651944E-1,1.5587428E-2,-1.8692002E-1,-7.738417E-1,-2.6627567E-1,-8.260536E-1,4.809239E-2,2.9356307E-1,-1.2925915E-1,-2.16922E-2,9.960727E-1,-7.221129E-2,-6.4301766E-3,2.6835104E-2,-2.306368E-1,-5.634926E-1,-1.6372319E-1,1.5756203E-1,-1.0029119E0,-2.8512627E-1,3.207011E-1,-4.1921544E-1,-1.3720307E-1,9.627516E-2,-5.2604795E-2,-7.814855E-2,3.1283975E-1,-2.6455885E-1,7.822287E-1,-9.928251E-3,1.0804223E0,4.350795E-3,1.4672416E-1,2.9328763E-1,-2.6294544E-1,-6.2397486E-1,5.0368035E-1,-1.4760101E-1,-6.2687E-1,5.965391E-1,-3.7892392E-1,-1.1385489E0,2.326527E-1,-3.0894357E-1,2.2552657E-1,5.0348777E-1,-5.0070673E-2,1.33736925E-2,-6.028337E-2,1.9483626E-2,-4.9787533E-2,9.924652E-3,-1.0451927E-1,2.7477402E-2,4.9287096E-2,9.89794E-2,-3.54982E-2,7.57714E-3,1.20089605E-1,1.4919655E-1,7.069412E-2,2.9467124E-2,-8.6652394E-4,-2.5763309E-2,1.7223379E-2,3.871533E-2,-1.0058691E-1,-2.8752444E-2,2.5906423E-2,-7.28031E-2,-2.1226583E-3,8.810545E-2,-9.663018E-4,-1.3098258E-2,-5.8269423E-2,7.67081E-2,-7.1410835E-2,7.715797E-2,2.5043188E-2,-6.39104E-2,1.0993647E-2,3.7230186E-2,-1.2535235E-1,5.855308E-2,-2.2256535E-2,-7.61773E-2,-2.8834924E-2,3.482717E-2,-9.722482E-2,1.0223687E-1,3.0831879E-2],"categories":[],"categories_nodes":[],"categories_segments":[],"categories_sizes":[],"default_left":[0,0,0,0,0,0,0,0,0,0,0,0,0,0,0,0,0,0,0,0,0,0,0,0,0,0,0,0,0,0,0,0,0,0,0,0,0,0,0,0,0,0,0,0,0,0,0,0,0,0,0,0,0,0,0,0,0,0,0,0,0,0,0,0,0,0,0,0,0,0,0,0,0,0,0,0,0,0,0,0,0,0,0,0,0,0,0,0,0,0,0,0,0,0,0,0,0,0,0,0,0],"id":14,"left_children":[1,3,5,7,9,11,13,15,17,19,21,23,25,27,29,31,33,35,37,-1,39,-1,-1,41,43,45,47,49,51,53,55,57,-1,-1,59,61,63,65,67,-1,69,71,73,75,77,79,81,83,85,87,89,91,93,95,97,99,-1,-1,-1,-1,-1,-1,-1,-1,-1,-1,-1,-1,-1,-1,-1,-1,-1,-1,-1,-1,-1,-1,-1,-1,-1,-1,-1,-1,-1,-1,-1,-1,-1,-1,-1,-1,-1,-1,-1,-1,-1,-1,-1,-1,-1],"loss_changes":[5.70077E1,5.847492E0,5.2442024E1,5.5191116E0,5.5788193E0,5.0973114E1,8.0528755E0,4.205647E0,5.4762344E0,2.8115387E0,3.3215386E-1,4.3535595E1,1.1697773E1,7.2721634E0,6.744671E0,1.0747919E0,2.0646782E0,4.670498E0,4.228725E0,0E0,2.139143E0,0E0,0E0,4.0519882E1,1.1701649E1,5.3428326E0,9.411335E0,1.9796355E0,4.7726307E0,7.161728E0,3.131856E0,6.589891E-1,0E0,0E0,2.371807E0,5.72505E0,4.0903893E0,3.656906E0,1.230463E0,0E0,2.0967178E0,4.783894E1,2.4531078E1,5.3113484E0,8.380562E0,4.63682E0,9.251975E-1,8.826574E0,5.7169647E0,7.8404784E-2,5.742492E-1,4.706375E0,6.9110227E-1,4.979912E0,4.2439322E0,1.3240876E0,0E0,0E0,0E0,0E0,0E0,0E0,0E0,0E0,0E0,0E0,0E0,0E0,0E0,0E0,0E0,0E0,0E0,0E0,0E0,0E0,0E0,0E0,0E0,0E0,0E0,0E0,0E0,0E0,0E0,0E0,0E0,0E0,0E0,0E0,0E0,0E0,0E0,0E0,0E0,0E0,0E0,0E0,0E0,0E0,0E0],"parents":[2147483647,0,0,1,1,2,2,3,3,4,4,5,5,6,6,7,7,8,8,9,9,10,10,11,11,12,12,13,13,14,14,15,15,16,16,17,17,18,18,20,20,23,23,24,24,25,25,26,26,27,27,28,28,29,29,30,30,31,31,34,34,35,35,36,36,37,37,38,38,40,40,41,41,42,42,43,43,44,44,45,45,46,46,47,47,48,48,49,49,50,50,51,51,52,52,53,53,54,54,55,55],"right_children":[2,4,6,8,10,12,14,16,18,20,22,24,26,28,30,32,34,36,38,-1,40,-1,-1,42,44,46,48,50,52,54,56,58,-1,-1,60,62,64,66,68,-1,70,72,74,76,78,80,82,84,86,88,90,92,94,96,98,100,-1,-1,-1,-1,-1,-1,-1,-1,-1,-1,-1,-1,-1,-1,-1,-1,-1,-1,-1,-1,-1,-1,-1,-1,-1,-1,-1,-1,-1,-1,-1,-1,-1,-1,-1,-1,-1,-1,-1,-1,-1,-1,-1,-1,-1],"split_conditions":[0E0,1E0,1E0,0E0,9E0,1E0,0E0,1.52E2,1E0,1.32E2,1.56E2,1E0,0E0,1.52E2,1E0,1E0,0E0,0E0,1E0,-2.16922E-2,0E0,-7.221129E-2,-6.4301766E-3,1E0,0E0,1E0,1E0,3E0,1E0,1E0,9E0,1.24E2,-1.3720307E-1,9.627516E-2,2.24E2,1E0,1E0,0E0,1.55E2,-9.928251E-3,1.56E2,0E0,0E0,2.31E2,1E0,7E0,1.61E2,1E0,0E0,1.45E2,1.38E2,0E0,1.56E2,0E0,1E0,0E0,-5.0070673E-2,1.33736925E-2,-6.028337E-2,1.9483626E-2,-4.9787533E-2,9.924652E-3,-1.0451927E-1,2.7477402E-2,4.9287096E-2,9.89794E-2,-3.54982E-2,7.57714E-3,1.20089605E-1,1.4919655E-1,7.069412E-2,2.9467124E-2,-8.6652394E-4,-2.5763309E-2,1.7223379E-2,3.871533E-2,-1.0058691E-1,-2.8752444E-2,2.5906423E-2,-7.28031E-2,-2.1226583E-3,8.810545E-2,-9.663018E-4,-1.3098258E-2,-5.8269423E-2,7.67081E-2,-7.1410835E-2,7.715797E-2,2.5043188E-2,-6.39104E-2,1.0993647E-2,3.7230186E-2,-1.2535235E-1,5.855308E-2,-2.2256535E-2,-7.61773E-2,-2.8834924E-2,3.482717E-2,-9.722482E-2,1.0223687E-1,3.0831879E-2],"split_indices":[71,27,33,55,1,20,26,0,59,0,0,42,58,0,25,9,27,26,67,0,34,0,0,14,12,49,71,2,70,32,1,0,0,0,0,34,10,30,0,0,0,18,35,0,21,1,0,18,35,0,0,53,0,61,19,36,0,0,0,0,0,0,0,0,0,0,0,0,0,0,0,0,0,0,0,0,0,0,0,0,0,0,0,0,0,0,0,0,0,0,0,0,0,0,0,0,0,0,0,0,0],"split_type":[0,0,0,0,0,0,0,0,0,0,0,0,0,0,0,0,0,0,0,0,0,0,0,0,0,0,0,0,0,0,0,0,0,0,0,0,0,0,0,0,0,0,0,0,0,0,0,0,0,0,0,0,0,0,0,0,0,0,0,0,0,0,0,0,0,0,0,0,0,0,0,0,0,0,0,0,0,0,0,0,0,0,0,0,0,0,0,0,0,0,0,0,0,0,0,0,0,0,0,0,0],"sum_hessian":[1.8429826E4,7.3178235E2,1.7698043E4,7.0631067E2,2.5471659E1,1.7065404E4,6.32638E2,2.7295166E1,6.790155E2,2.2732082E1,2.739575E0,1.5716704E4,1.3487009E3,3.234386E1,6.002941E2,6.4281306E0,2.0867035E1,6.4740405E2,3.1611485E1,1.7403703E0,2.0991713E1,1.2456554E0,1.4939196E0,1.5030971E4,6.8573315E2,7.69076E1,1.2717933E3,6.4460945E0,2.5897766E1,5.8211395E2,1.8180162E1,4.6964025E0,1.7317277E0,1.2204556E0,1.964658E1,3.1768032E1,6.15636E2,2.8143642E1,3.4678428E0,1.4882619E0,1.950345E1,1.2658078E4,2.372893E3,3.9361427E1,6.463717E2,7.317565E1,3.7319424E0,1.2302856E3,4.1507637E1,3.4836645E0,2.9624298E0,2.3406757E1,2.491009E0,5.565509E2,2.5563044E1,1.5187543E1,2.992619E0,1.2384782E0,3.4579246E0,1.2990221E1,6.656358E0,2.7602066E1,4.165966E0,5.102708E2,1.0536519E2,1.2235991E0,2.6920042E1,1.7298628E0,1.7379801E0,7.854135E0,1.1649316E1,5.42224E2,1.2115854E4,1.4027477E2,2.2326182E3,3.7363842E1,1.9975867E0,6.1773474E2,2.8637009E1,6.2225433E1,1.095022E1,1.7379884E0,1.9939541E0,1.1862767E3,4.4008923E1,1.9857128E0,3.9521923E1,1.4971739E0,1.9864907E0,1.732845E0,1.2295847E0,1.4969981E0,2.190976E1,1.2419802E0,1.2490288E0,2.2644884E1,5.33906E2,2.3830214E1,1.7328297E0,2.992701E0,1.2194841E1],"tree_param":{"num_deleted":"0","num_feature":"72","num_nodes":"101","size_leaf_vector":"1"}},{"base_weights":[3.0329158E-3,-1.4725208E-2,1.5637195E-1,-3.6429424E-2,1.4249772E-1,5.162052E-1,1.3932666E-1,-4.964783E-2,1.901842E-1,1.6544573E-1,-2.5458682E-1,5.8296335E-1,-1.909175E-1,1.1888321E-1,4.8182708E-1,-3.0766514E-1,-3.816736E-2,5.310326E-1,1.5881753E-1,-9.2594E-3,2.0158532E-1,4.755161E-1,-3.1051624E-1,6.506125E-1,-3.9847156E-1,-6.98577E-2,4.517026E-2,5.1813185E-1,1.0235853E-1,-1.0870178E-1,5.236743E-1,-6.881543E-1,-2.54197E-1,-2.484369E-1,-2.4814095E-2,9.207131E-1,3.322014E-1,1.3346232E-1,6.1099327E-1,4.2203616E-2,-5.086905E-1,4.6139437E-1,1.7663711E-1,7.3956984E-1,-4.274583E-2,3.314951E-1,-3.8496214E-1,7.195713E-1,-2.2286381E-1,4.7912538E-1,-1.22345746E-1,-5.7950355E-2,5.555442E-1,-2.5460488E-1,1.2302075E-1,5.68766E-1,-5.094288E-1,-7.3120706E-2,6.849437E-2,6.83553E-2,-2.7918193E-2,3.7898943E-2,-2.6638761E-2,-4.7461116E-3,9.442537E-3,-1.035544E-2,1.0556286E-1,1.21602E-2,7.130172E-2,-1.4265356E-2,1.6506916E-2,-7.425872E-2,7.2341174E-2,5.318033E-4,6.669391E-2,-7.466054E-2,1.022715E-2,5.0402153E-2,-7.7653E-2,5.3634357E-2,1.6057616E-2,9.8310344E-2,2.3230841E-2,-8.6925276E-2,6.0617533E-2,1.954466E-2,-4.615338E-2,-1.736976E-2,7.836258E-2,-6.729888E-2,2.600582E-2,-2.8559456E-2,1.0318779E-1,-1.3399762E-2,6.0955495E-2,4.162814E-2,-3.0432364E-2,1.0429043E-2,4.668648E-2,-5.8793217E-2,6.2493008E-2,-4.0011914E-4,-7.3924884E-2],"categories":[],"categories_nodes":[],"categories_segments":[],"categories_sizes":[],"default_left":[0,0,0,0,0,0,0,0,0,0,0,0,0,0,0,0,0,0,0,0,0,0,0,0,0,0,0,0,0,0,0,0,0,0,0,0,0,0,0,0,0,0,0,0,0,0,0,0,0,0,0,0,0,0,0,0,0,0,0,0,0,0,0,0,0,0,0,0,0,0,0,0,0,0,0,0,0,0,0,0,0,0,0,0,0,0,0,0,0,0,0,0,0,0,0,0,0,0,0,0,0,0,0],"id":15,"left_children":[1,3,5,7,9,11,13,15,17,19,21,23,25,27,29,31,33,35,37,39,41,43,45,47,49,-1,-1,51,53,-1,55,57,59,61,63,65,67,69,71,73,75,77,79,81,-1,83,85,87,89,91,-1,-1,93,95,97,99,101,-1,-1,-1,-1,-1,-1,-1,-1,-1,-1,-1,-1,-1,-1,-1,-1,-1,-1,-1,-1,-1,-1,-1,-1,-1,-1,-1,-1,-1,-1,-1,-1,-1,-1,-1,-1,-1,-1,-1,-1,-1,-1,-1,-1,-1,-1],"loss_changes":[5.0111546E1,5.6286217E1,1.1643223E1,4.342353E1,1.8274445E1,4.1718197E0,1.2721313E1,4.0555733E1,8.458059E0,1.194841E1,4.627495E0,5.4938984E0,2.9819913E0,1.1318016E1,7.2965794E0,1.16911125E1,3.6812233E1,4.878042E0,8.323452E0,8.38179E0,1.0081032E1,2.2715807E0,5.0269346E0,4.626045E0,4.7161274E0,0E0,0E0,3.1248589E0,1.2247591E1,0E0,4.9706593E0,4.714546E0,1.2209972E1,8.918655E0,3.3303505E1,3.1550007E0,3.5917172E0,6.0928783E0,6.4177895E0,6.8130913E0,4.5043674E0,7.6072464E0,8.187565E0,6.007688E-1,0E0,4.21717E0,4.1930876E0,4.0813103E0,1.5202062E0,1.7667978E0,0E0,0E0,2.558918E0,3.1604433E0,1.0039049E1,6.6529503E0,5.4644823E-1,0E0,0E0,0E0,0E0,0E0,0E0,0E0,0E0,0E0,0E0,0E0,0E0,0E0,0E0,0E0,0E0,0E0,0E0,0E0,0E0,0E0,0E0,0E0,0E0,0E0,0E0,0E0,0E0,0E0,0E0,0E0,0E0,0E0,0E0,0E0,0E0,0E0,0E0,0E0,0E0,0E0,0E0,0E0,0E0,0E0,0E0],"parents":[2147483647,0,0,1,1,2,2,3,3,4,4,5,5,6,6,7,7,8,8,9,9,10,10,11,11,12,12,13,13,14,14,15,15,16,16,17,17,18,18,19,19,20,20,21,21,22,22,23,23,24,24,27,27,28,28,30,30,31,31,32,32,33,33,34,34,35,35,36,36,37,37,38,38,39,39,40,40,41,41,42,42,43,43,45,45,46,46,47,47,48,48,49,49,52,52,53,53,54,54,55,55,56,56],"right_children":[2,4,6,8,10,12,14,16,18,20,22,24,26,28,30,32,34,36,38,40,42,44,46,48,50,-1,-1,52,54,-1,56,58,60,62,64,66,68,70,72,74,76,78,80,82,-1,84,86,88,90,92,-1,-1,94,96,98,100,102,-1,-1,-1,-1,-1,-1,-1,-1,-1,-1,-1,-1,-1,-1,-1,-1,-1,-1,-1,-1,-1,-1,-1,-1,-1,-1,-1,-1,-1,-1,-1,-1,-1,-1,-1,-1,-1,-1,-1,-1,-1,-1,-1,-1,-1,-1],"split_conditions":[1E0,1E0,0E0,1E0,1E0,1E0,1E0,0E0,0E0,0E0,0E0,1E0,1.82E2,0E0,1.22E2,0E0,0E0,1.53E2,1E0,1E0,0E0,1E0,1.45E2,1E0,1.61E2,-6.98577E-2,4.517026E-2,0E0,0E0,-1.0870178E-1,1E0,1E0,0E0,0E0,1E0,1.24E2,1.85E2,0E0,0E0,1E0,1.86E2,1E0,0E0,1.56E2,-4.274583E-2,0E0,0E0,0E0,1.55E2,1.53E2,-1.22345746E-1,-5.7950355E-2,0E0,0E0,1E0,0E0,1.53E2,-7.3120706E-2,6.849437E-2,6.83553E-2,-2.7918193E-2,3.7898943E-2,-2.6638761E-2,-4.7461116E-3,9.442537E-3,-1.035544E-2,1.0556286E-1,1.21602E-2,7.130172E-2,-1.4265356E-2,1.6506916E-2,-7.425872E-2,7.2341174E-2,5.318033E-4,6.669391E-2,-7.466054E-2,1.022715E-2,5.0402153E-2,-7.7653E-2,5.3634357E-2,1.6057616E-2,9.8310344E-2,2.3230841E-2,-8.6925276E-2,6.0617533E-2,1.954466E-2,-4.615338E-2,-1.736976E-2,7.836258E-2,-6.729888E-2,2.600582E-2,-2.8559456E-2,1.0318779E-1,-1.3399762E-2,6.0955495E-2,4.162814E-2,-3.0432364E-2,1.0429043E-2,4.668648E-2,-5.8793217E-2,6.2493008E-2,-4.0011914E-4,-7.3924884E-2],"split_indices":[29,7,44,6,3,53,35,55,3,14,30,24,0,71,0,14,32,0,35,67,20,14,0,35,0,0,0,11,6,0,42,45,42,44,14,0,0,34,41,32,0,43,71,0,0,53,5,53,0,0,0,0,67,5,32,32,0,0,0,0,0,0,0,0,0,0,0,0,0,0,0,0,0,0,0,0,0,0,0,0,0,0,0,0,0,0,0,0,0,0,0,0,0,0,0,0,0,0,0,0,0,0,0],"split_type":[0,0,0,0,0,0,0,0,0,0,0,0,0,0,0,0,0,0,0,0,0,0,0,0,0,0,0,0,0,0,0,0,0,0,0,0,0,0,0,0,0,0,0,0,0,0,0,0,0,0,0,0,0,0,0,0,0,0,0,0,0,0,0,0,0,0,0,0,0,0,0,0,0,0,0,0,0,0,0,0,0,0,0,0,0,0,0,0,0,0,0,0,0,0,0,0,0,0,0,0,0,0,0],"sum_hessian":[1.8401127E4,1.649209E4,1.9090376E3,1.4492242E4,1.9998479E3,8.5016624E1,1.824021E3,1.3694236E4,7.98006E2,1.8911399E3,1.0870797E2,7.784317E1,7.1734486E0,1.722551E3,1.0146994E2,5.8226843E2,1.3111968E4,6.5905785E1,7.3210016E2,3.242761E2,1.5668638E3,7.2012105E0,1.0150676E2,7.313888E1,4.7042937E0,3.958903E0,3.2145457E0,6.725541E1,1.6552957E3,1.9873847E0,9.948255E1,7.02791E1,5.1198932E2,7.8190826E2,1.233006E4,2.103993E1,4.4865852E1,6.9445465E2,3.764554E1,2.9481308E2,2.946301E1,1.3574367E2,1.4311201E3,5.71187E0,1.4893402E0,1.0188623E1,9.131813E1,6.795055E1,5.1883316E0,2.4826024E0,2.2216911E0,1.7392151E0,6.551619E1,8.995192E1,1.5653438E3,9.575271E1,3.729843E0,6.8595795E1,1.6833074E0,1.2603098E1,4.9938623E2,2.11888E1,7.607195E2,1.036252E4,1.96754E3,2.4758577E0,1.8564074E1,2.9738909E1,1.5126945E1,7.0967964E1,6.234867E2,2.4569507E0,3.518859E1,2.7932947E2,1.5483636E1,2.1045616E1,8.417396E0,1.3179813E2,3.9455385E0,5.9783966E1,1.3713362E3,3.2253404E0,2.4865298E0,1.4938312E0,8.694793E0,1.0462272E1,8.085586E1,4.432034E0,6.3518517E1,2.4816463E0,2.706685E0,1.2443696E0,1.2382329E0,4.651445E0,6.0864746E1,5.697623E0,8.4254295E1,1.4857152E3,7.962848E1,3.9955897E0,9.175712E1,1.4838724E0,2.2459705E0],"tree_param":{"num_deleted":"0","num_feature":"72","num_nodes":"103","size_leaf_vector":"1"}},{"base_weights":[2.1569815E-3,1.4899151E-1,-1.6588805E-2,1.640596E-1,-2.085097E-1,2.6801208E-1,-2.6824329E-2,1.8166848E-1,-2.1249992E-1,3.204183E-1,-3.2439873E-1,2.2824995E-1,5.98913E-1,-3.9204225E-2,1.9425674E-1,6.7708227E-3,2.100526E-1,-2.6379877E-1,9.5341146E-1,5.003201E-1,-6.1073434E-2,-3.7049228E-1,7.365953E-2,7.7623713E-1,2.0543219E-1,-7.004287E-2,6.67052E-1,-1.495984E-1,-1.5802562E-2,2.2911894E-1,-2.6352364E-1,6.3178934E-2,-5.1569104E-1,2.2916496E-1,-1.0932938E-1,-3.071097E-1,7.0878E-2,3.592046E-2,1.16522335E-1,-4.5188982E-2,6.5375644E-1,6.946828E-2,-4.1351393E-1,-7.7700056E-2,9.211455E-1,-1.2220902E-1,2.4686985E-1,7.3464227E-1,-5.0618615E-2,-5.590964E-1,-1.3384454E-1,-1.6835152E-1,3.9354498E-3,1.8056777E-1,5.842045E-1,-3.791035E-1,6.309338E-1,-6.1639804E-2,9.7702285E-3,-7.7439845E-2,1.0098193E-1,2.5256941E-2,-1.4104245E-3,8.973787E-2,-1.7899992E-2,4.5420673E-2,-3.6885835E-2,-1.8400585E-2,7.659494E-2,-4.5974974E-2,4.744622E-2,1.0302732E-1,-3.433289E-2,-2.8924707E-2,4.9753394E-2,1.8831441E-2,5.582576E-2,8.003357E-2,-3.0338377E-2,6.518745E-2,-5.9820022E-2,-1.1745293E-2,-5.019548E-2,-5.508056E-2,-1.4371239E-2,1.7461209E-2,-1.2533747E-3,6.7712694E-2,1.5846288E-2,6.424173E-2,-7.036147E-2,-1.4171576E-1,-3.1116594E-2,1.2417614E-2,7.1457855E-2],"categories":[],"categories_nodes":[],"categories_segments":[],"categories_sizes":[],"default_left":[0,0,0,0,0,0,0,0,0,0,0,0,0,0,0,0,0,0,0,0,0,0,0,0,0,0,0,0,0,0,0,0,0,0,0,0,0,0,0,0,0,0,0,0,0,0,0,0,0,0,0,0,0,0,0,0,0,0,0,0,0,0,0,0,0,0,0,0,0,0,0,0,0,0,0,0,0,0,0,0,0,0,0,0,0,0,0,0,0,0,0,0,0,0,0],"id":16,"left_children":[1,3,5,7,9,11,13,15,17,19,21,23,25,27,29,31,33,35,37,39,-1,41,-1,43,45,-1,47,49,51,53,55,57,59,61,63,65,-1,-1,-1,-1,67,-1,69,-1,71,73,75,77,-1,79,81,83,85,87,89,91,93,-1,-1,-1,-1,-1,-1,-1,-1,-1,-1,-1,-1,-1,-1,-1,-1,-1,-1,-1,-1,-1,-1,-1,-1,-1,-1,-1,-1,-1,-1,-1,-1,-1,-1,-1,-1,-1,-1],"loss_changes":[5.0517155E1,1.1226959E1,4.74178E1,1.3262505E1,5.281931E0,7.2985497E0,4.3008564E1,9.459381E0,5.607726E0,2.9330604E0,3.685923E0,6.1687183E0,5.7797756E0,3.843591E1,1.3359156E1,7.9053025E0,1.0033577E1,3.8639956E0,8.374691E-2,2.2963166E0,0E0,3.3827095E0,0E0,5.1882944E0,6.6451073E0,0E0,4.933716E0,1.6712994E1,3.6968742E1,1.325301E1,6.383546E0,5.737704E0,1.1098457E1,8.813667E0,6.7013497E0,4.0961957E0,0E0,0E0,0E0,0E0,1.287931E0,0E0,2.9094963E0,0E0,2.9248972E0,5.8760037E0,7.7873344E0,3.979782E0,0E0,4.9401283E0,1.5069286E1,1.3175751E1,3.0562414E1,7.3907413E0,7.4057484E0,3.3149028E0,2.154584E-1,0E0,0E0,0E0,0E0,0E0,0E0,0E0,0E0,0E0,0E0,0E0,0E0,0E0,0E0,0E0,0E0,0E0,0E0,0E0,0E0,0E0,0E0,0E0,0E0,0E0,0E0,0E0,0E0,0E0,0E0,0E0,0E0,0E0,0E0,0E0,0E0,0E0,0E0],"parents":[2147483647,0,0,1,1,2,2,3,3,4,4,5,5,6,6,7,7,8,8,9,9,10,10,11,11,12,12,13,13,14,14,15,15,16,16,17,17,18,18,19,19,21,21,23,23,24,24,26,26,27,27,28,28,29,29,30,30,31,31,32,32,33,33,34,34,35,35,40,40,42,42,44,44,45,45,46,46,47,47,49,49,50,50,51,